[ 1.62434536e+00 -6.11756414e-01 -5.28171752e-01 -1.07296862e+00
  8.65407629e-01 -2.30153870e+00  1.74481176e+00 -7.61206901e-01
  3.19039096e-01 -2.49370375e-01  1.46210794e+00 -2.06014071e+00
 -3.22417204e-01 -3.84054355e-01  1.13376944e+00 -1.09989127e+00
 -1.72428208e-01 -8.77858418e-01  4.22137467e-02  5.82815214e-01
 -1.10061918e+00  1.14472371e+00  9.01590721e-01  5.02494339e-01
  9.00855949e-01 -6.83727859e-01 -1.22890226e-01 -9.35769434e-01
 -2.67888080e-01  5.30355467e-01 -6.91660752e-01 -3.96753527e-01
 -6.87172700e-01 -8.45205641e-01 -6.71246131e-01 -1.26645989e-02
 -1.11731035e+00  2.34415698e-01  1.65980218e+00  7.42044161e-01
 -1.91835552e-01 -8.87628964e-01 -7.47158294e-01  1.69245460e+00
  5.08077548e-02 -6.36995647e-01  1.90915485e-01  2.10025514e+00
  1.20158952e-01  6.17203110e-01  3.00170320e-01 -3.52249846e-01
 -1.14251820e+00 -3.49342722e-01 -2.08894233e-01  5.86623191e-01
  8.38983414e-01  9.31102081e-01  2.85587325e-01  8.85141164e-01
 -7.54397941e-01  1.25286816e+00  5.12929820e-01 -2.98092835e-01
  4.88518147e-01 -7.55717130e-02  1.13162939e+00  1.51981682e+00
  2.18557541e+00 -1.39649634e+00 -1.44411381e+00 -5.04465863e-01
  1.60037069e-01  8.76168921e-01  3.15634947e-01 -2.02220122e+00
 -3.06204013e-01  8.27974643e-01  2.30094735e-01  7.62011180e-01
 -2.22328143e-01 -2.00758069e-01  1.86561391e-01  4.10051647e-01
  1.98299720e-01  1.19008646e-01 -6.70662286e-01  3.77563786e-01
  1.21821271e-01  1.12948391e+00  1.19891788e+00  1.85156417e-01
 -3.75284950e-01 -6.38730407e-01  4.23494354e-01  7.73400683e-02
 -3.43853676e-01  4.35968568e-02 -6.20000844e-01  6.98032034e-01
 -4.47128565e-01  1.22450770e+00  4.03491642e-01  5.93578523e-01
 -1.09491185e+00  1.69382433e-01  7.40556451e-01 -9.53700602e-01
 -2.66218506e-01  3.26145467e-02 -1.37311732e+00  3.15159392e-01
  8.46160648e-01 -8.59515941e-01  3.50545979e-01 -1.31228341e+00
 -3.86955093e-02 -1.61577235e+00  1.12141771e+00  4.08900538e-01
 -2.46169559e-02 -7.75161619e-01  1.27375593e+00  1.96710175e+00
 -1.85798186e+00  1.23616403e+00  1.62765075e+00  3.38011697e-01
 -1.19926803e+00  8.63345318e-01 -1.80920302e-01 -6.03920628e-01
 -1.23005814e+00  5.50537496e-01  7.92806866e-01 -6.23530730e-01
  5.20576337e-01 -1.14434139e+00  8.01861032e-01  4.65672984e-02
 -1.86569772e-01 -1.01745873e-01  8.68886157e-01  7.50411640e-01
  5.29465324e-01  1.37701210e-01  7.78211279e-02  6.18380262e-01
  2.32494559e-01  6.82551407e-01 -3.10116774e-01 -2.43483776e+00
  1.03882460e+00  2.18697965e+00  4.41364444e-01 -1.00155233e-01
 -1.36444744e-01 -1.19054188e-01  1.74094083e-02 -1.12201873e+00
 -5.17094458e-01 -9.97026828e-01  2.48799161e-01 -2.96641152e-01
  4.95211324e-01 -1.74703160e-01  9.86335188e-01  2.13533901e-01
  2.19069973e+00 -1.89636092e+00 -6.46916688e-01  9.01486892e-01
  2.52832571e+00 -2.48634778e-01  4.36689932e-02 -2.26314243e-01
  1.33145711e+00 -2.87307863e-01  6.80069840e-01 -3.19801599e-01
 -1.27255876e+00  3.13547720e-01  5.03184813e-01  1.29322588e+00
 -1.10447026e-01 -6.17362064e-01  5.62761097e-01  2.40737092e-01
  2.80665077e-01 -7.31127037e-02  1.16033857e+00  3.69492716e-01
  1.90465871e+00  1.11105670e+00  6.59049796e-01 -1.62743834e+00
  6.02319280e-01  4.20282204e-01  8.10951673e-01  1.04444209e+00
 -4.00878192e-01  8.24005618e-01 -5.62305431e-01  1.95487808e+00
 -1.33195167e+00 -1.76068856e+00 -1.65072127e+00 -8.90555584e-01
 -1.11911540e+00  1.95607890e+00 -3.26499498e-01 -1.34267579e+00
  1.11438298e+00 -5.86523939e-01 -1.23685338e+00  8.75838928e-01
  6.23362177e-01 -4.34956683e-01  1.40754000e+00  1.29101580e-01
  1.61694960e+00  5.02740882e-01  1.55880554e+00  1.09402696e-01
 -1.21974440e+00  2.44936865e+00 -5.45774168e-01 -1.98837863e-01
 -7.00398505e-01 -2.03394449e-01  2.42669441e-01  2.01830179e-01
  6.61020288e-01  1.79215821e+00 -1.20464572e-01 -1.23312074e+00
 -1.18231813e+00 -6.65754518e-01 -1.67419581e+00  8.25029824e-01
 -4.98213564e-01 -3.10984978e-01 -1.89148284e-03 -1.39662042e+00
 -8.61316361e-01  6.74711526e-01  6.18539131e-01 -4.43171931e-01
  1.81053491e+00 -1.30572692e+00 -3.44987210e-01 -2.30839743e-01
 -2.79308500e+00  1.93752881e+00  3.66332015e-01 -1.04458938e+00][ 2.05117344  0.585662    0.42952614 -0.6069984   0.10622272 -1.52568032
  0.79502609 -0.37443832  0.1340482   1.20205486  0.28474811  0.26246745
  0.2764993  -0.7332716   0.83600472  1.54335911  0.75880566  0.88490881
 -0.87728152 -0.86778722 -1.44087602  1.23225307 -0.25417987  1.39984394
 -0.78191168 -0.43750898  0.09542509  0.92145007  0.0607502   0.21112476
  0.01652757  0.17718772 -1.11647002  0.0809271  -0.18657899 -0.05682448
  0.49233656 -0.68067814 -0.08450803 -0.29736188  0.417302    0.78477065
 -0.95542526  0.58591043  2.06578332 -1.47115693 -0.8301719  -0.8805776
 -0.27909772  1.62284909  0.01335268 -0.6946936   0.6218035  -0.59980453
  1.12341216  0.30526704  1.3887794  -0.66134424  3.03085711  0.82458463
  0.65458015 -0.05118845 -0.72559712 -0.86776868 -0.13597733 -0.79726979
  0.28267571 -0.82609743  0.6210827   0.9561217  -0.70584051  1.19268607
 -0.23794194  1.15528789  0.43816635  1.12232832 -0.9970198  -0.10679399
  1.45142926 -0.61803685 -2.03720123 -1.94258918 -2.50644065 -2.11416392
 -0.41163916  1.27852808 -0.44222928  0.32352735 -0.10999149  0.00854895
 -0.16819884 -0.17418034  0.4611641  -1.17598267  1.01012718  0.92001793
 -0.19505734  0.80539342 -0.70134443 -0.53722302  0.15626385 -0.19022103
 -0.44873803 -0.67244804 -0.55749472  0.93916874 -1.94332341  0.35249436
 -0.23643695  0.7278135   0.51507361 -2.78253447  0.58464661  0.32427424
  0.02186284 -0.46867382  0.85328122 -0.41302931  1.83471763  0.56438286
  2.13782807 -0.785534   -1.75592564  0.7147896   0.85270406  0.0353601
 -1.53879325 -0.44789518  0.61798553 -0.18417633 -0.11598519 -0.17545897
 -0.93391466 -0.53302033 -1.42655542  1.76795995 -0.47537288  0.47761018
 -1.02188594  0.79452824 -1.87316098  0.92061512 -0.03536792  2.11060505
 -1.30653407  0.07638048  0.36723181  1.23289919 -0.42285696  0.08646441
 -2.14246673 -0.83016886  0.45161595  1.10417433 -0.28173627  2.05635552
  1.76024923 -0.06065249 -2.413503   -1.77756638 -0.77785883  1.11584111
  0.31027229 -2.09424782 -0.22876583  1.61336137 -0.37480469 -0.74996962
  2.0546241   0.05340954 -0.4791571   0.35016716  0.01716473 -0.42914228
  1.20845633  1.1157018   0.84086156 -0.10288722  1.14690038 -0.04970258
  0.46664327  1.03368687  0.80884436  1.78975468  0.45128402 -1.68405999
 -1.1601701   1.35010682 -0.33128317  0.38653915 -0.85145566  1.00088142
 -0.38483225  1.45810824 -0.53223402  1.1181334   0.6743961  -0.72239191
  1.09899633 -0.90163449 -0.82246719  0.72171129 -0.625342   -0.59384307
 -0.34390071 -1.00016919  1.04499441  0.6085147  -0.0693287  -0.10839207
  0.45015551  1.7653351   0.8709698  -0.50845713  0.77741921 -0.11877117
 -0.19899818  1.86647138 -0.4189379  -0.47918492 -1.95210529 -1.40232915
  0.45112294 -0.6949209   0.5154138  -1.11487105 -0.76730983  0.67457071
  1.46089238  0.5924728   1.19783084  1.70459417  1.04008915 -0.91844004
 -0.10534471  0.63019567 -0.4148469   0.45194604 -1.57915629 -0.82862798
  0.52887975 -2.23708651 -1.1077125  -0.01771832 -1.71939447  0.057121
 -0.79954749 -0.2915946  -0.25898285  0.1892932  -0.56378873  0.08968641
 -0.6011568   0.55607351  1.69380911  0.19686978][ 1.69869255e-01 -1.16400797e+00  6.93366226e-01 -7.58067329e-01
 -8.08847196e-01  5.57439453e-01  1.81038744e-01  1.10717545e+00
  1.44287693e+00 -5.39681562e-01  1.28376990e-01  1.76041518e+00
  9.66539250e-01  7.13049050e-01  1.30620607e+00 -6.04602969e-01
  6.36583409e-01  1.40925339e+00  1.62091229e+00 -8.06184817e-01
 -2.51674208e-01  3.82715174e-01 -2.88997343e-01 -3.91816240e-01
  6.84001328e-01 -3.53409983e-01 -1.78791289e+00  3.61847316e-01
 -4.24492791e-01 -7.31530982e-01 -1.56573815e+00  1.01382247e+00
 -2.22711263e+00 -1.69933360e+00 -2.75846063e-01  1.22895559e+00
  1.30970591e+00 -1.15498263e+00 -1.77632196e-01 -1.51045638e+00
  1.01120706e+00 -1.47656266e+00 -1.43195745e-01  1.03298378e+00
 -2.22414029e-01  1.47016034e+00 -8.70008223e-01  3.69190470e-01
  8.53282186e-01 -1.39711730e-01  1.38631426e+00  5.48129585e-01
 -1.63744959e+00  3.95860270e+00  6.48643644e-01  1.07343294e-01
 -1.39881282e+00  8.17678188e-02 -4.59942831e-01  6.44353666e-01
  3.71670291e-01  1.85300949e+00  1.42251373e-01  5.13505480e-01
  3.72456852e-01 -1.48489803e-01 -1.83400197e-01  1.10100020e+00
  7.80027135e-01 -6.29441604e-01 -1.11343610e+00 -6.74100249e-02
  1.16143998e+00 -2.75293863e-02  1.74643509e+00 -7.75070287e-01
  1.41640538e-01 -2.51630386e+00 -5.95667881e-01 -3.09121319e-01
  5.10937774e-01  1.71066184e+00  3.49435894e-02  1.45391758e+00
  6.61681076e-01  9.86352180e-01 -4.66154857e-01  1.38499134e+00
 -1.07296428e+00  4.95158611e-01 -9.52062101e-01 -5.18145552e-01
 -1.46140360e+00 -5.16347909e-01  3.51116897e-01 -6.87704631e-02
 -1.34776494e+00  1.47073986e+00  3.37220938e-01  1.00806543e+00
  7.85226920e-01 -6.64867767e-01 -1.94504696e+00 -9.15424368e-01
  1.22515585e+00 -1.05354607e+00  8.16043684e-01 -6.12406973e-01
  3.93109245e-01 -1.82391985e+00  1.16707517e+00 -3.96687001e-02
  8.85825799e-01  1.89861649e-01  7.98063795e-01 -1.01932039e-01
  7.43356544e-01 -1.50957268e+00 -1.08071069e+00  7.25474004e-01
 -3.91782562e-02 -2.28754171e-01 -1.79612295e-01  5.01725109e-01
 -5.93343754e-01  5.10307597e-01 -9.15791849e-01 -4.07252043e-01
  9.84951672e-01  1.07125243e+00 -1.09715436e+00  8.38634747e-01
 -1.03918232e+00  7.33023232e-01 -1.89881206e+00 -1.11711069e+00
 -5.08972278e-01 -1.66485955e-01  1.42361443e+00  9.03999174e-01
  1.57546791e+00  1.20660790e+00 -2.82863552e-01 -2.66326884e-01
  1.06897162e+00  4.03714310e-02 -1.56993672e-01 -1.33520272e+00
 -1.06460122e-01 -2.79099641e+00 -4.56117555e-01 -9.79890252e-01
  6.92574348e-01 -4.78672356e-01 -3.29051549e-01  1.34710546e+00
 -1.04906775e+00  3.16658895e-01 -1.89526695e+00  8.97291174e-02
  4.10265745e-01  8.59870972e-01 -8.98683193e-01  3.19656942e-01
  3.18154200e-01 -1.92316341e-02  1.50016279e-01  4.63534322e-01
  3.97880425e-01 -9.96010889e-01 -1.19586151e+00  2.50598029e+00
  1.91979229e+00 -1.39169388e+00  4.50217742e-01  6.27437083e-01
  7.51337235e-01  1.40395436e-01 -9.26871939e-01 -1.82420406e-01
 -4.91125138e-01  1.34373116e-01 -2.68371304e-01 -1.31675626e-01
  1.01855247e+00  1.23055820e+00 -1.18110317e+00 -4.59930104e-01
 -7.90799954e-01  1.22372221e+00 -5.93679025e-02  1.44898940e+00
 -4.77580855e-01  2.59999942e-02 -1.34869645e+00  1.30253554e+00
 -3.62612088e-01 -1.48515645e+00 -5.92461285e-01 -2.30490794e+00
 -3.18171727e-02  1.12487742e-01  2.88078167e-01  1.49810818e+00
 -3.00976154e-01  8.07455917e-01  3.12238689e-01 -1.93321640e-01
 -2.07680202e+00  9.47501167e-01 -5.03973949e-01  1.79558917e-02
 -1.27046078e+00  2.82995534e-01  1.08030817e-01  2.94176190e-02
 -1.34793129e-01  1.04921829e+00  9.66220863e-01  7.25916853e-01
  3.32107876e+00 -6.00225330e-01 -3.79517516e-01 -1.01480369e+00
  4.35986196e-01 -6.87487393e-01 -2.69836174e+00 -1.21333813e+00
  7.22518992e-02  1.00978733e+00 -1.55694156e+00 -6.12442128e-01
 -1.39351805e-01 -7.28537489e-01  5.31163793e-01  4.00084198e-03
  3.21265914e-01 -7.25214926e-01  1.53653633e+00 -3.75008758e-04
  1.29354962e+00 -4.38997664e-01  5.90039464e-01 -6.79383783e-01
 -9.50909251e-01 -7.04350332e-01 -4.58666861e-02 -2.18733459e-01
  1.53920701e+00 -1.14870423e+00 -1.09033833e+00  1.70018815e+00
  6.08783659e-01 -1.88141087e+00  4.97269099e-01  2.37332699e-01][-2.14444405 -0.36956243 -0.01745495  0.73140252  0.95449567  0.09574677
  1.0334508  -0.14627327 -0.85749682 -0.93418184  0.54264529 -1.95816909
  0.67780757 -1.10657307 -0.3592241   0.5053819   1.2179409  -1.94068096
 -0.80617821  0.04906169 -0.59608633  0.8616231  -2.08639057  0.36180164
  0.42592018  0.0490804   1.10223673 -1.22957425  1.10861676 -0.7029204
  0.72555052 -0.32420422  0.81434313  0.78046993 -1.46405357 -0.15449119
 -0.09243232 -0.23787527 -0.75566277  1.85143789  0.20909668  1.55501599
 -0.56914865 -1.06179676  0.13224778 -0.5632366   2.39014596  0.24542285
  1.15259914 -0.22423577 -0.32606131 -0.03091142  0.35571726  0.84958685
 -0.12215402 -0.68085157 -1.06787658 -0.07667936  0.57296273  0.45794708
 -0.01781755 -0.6001388   0.14676526  0.57180488 -0.03681766  0.11236849
 -0.15050433  0.91549927 -0.43820027  0.18553562  0.39442803  0.72552256
  1.49588477  0.67545381  0.59921324 -1.47023709  0.60640394  2.29371761
 -0.83001099 -1.01951985 -0.21465384  1.02124813  0.52475049 -0.47712421
 -0.03599018  1.03703898  0.67261975  2.42887697  1.00568668  0.35356722
  0.61472628 -0.34898419 -0.977773    0.17195713  0.49056104 -1.39528303
 -0.52235647 -0.3692559   0.2656424  -0.26046606  0.44509671  0.09811225
  1.06032751 -1.71116766  1.65712464  1.41767401  0.05031709  0.65032321
  0.6065484  -0.73728963  0.16466507  0.77817418  0.30981676  1.05132077
  0.09499611  0.08075099 -0.76780375 -0.36453805 -0.45971768  1.70548352
  0.24050555 -0.9994265   0.39859839 -0.1920037  -3.05376438  0.47985237
 -1.55269878  0.57846442 -0.9612636  -1.45832446  0.49434165 -1.49419377
 -0.4466992   0.20437739  0.61223252  0.74488454 -0.03628129 -0.83239535
  1.92381543 -0.60598132  1.80358898 -0.45252497  1.16128569  1.06996554
 -1.04553425  0.35528451  0.75539203  0.70098212 -0.19893745  0.30196005
 -0.39468968 -1.17181338  0.98401224 -0.55968142  1.37975819  0.6024509
 -0.89264667 -0.16119832 -0.28638492 -0.87088765  0.50142959 -0.47861407
  1.63169151  0.86089124 -0.88018906 -0.01900052 -0.22676019 -1.56450785
  0.93125568  0.94980882  0.92550121 -0.45698786  1.06898597 -0.20975294
  0.93514778  1.81252782  0.14010988 -1.41914878 -0.3169012   0.64098587
  1.21987438 -1.13379204 -0.1905483   0.23333913  0.43499832  0.9104236
 -0.94843966 -0.4234783   1.00796648  0.39233491  0.44838065  1.1253235
  0.10405339  0.52800342 -0.31456386 -1.34501002 -1.29525789  0.07432055
 -0.19956072 -0.65460317  0.3180143  -0.89027155  0.11133727 -0.01952256
 -0.83998891 -2.29820588  1.45652739  0.31663724 -2.66412594 -0.42642862
  0.39378773 -0.22814069  0.58033011 -0.97326759  0.17516773 -0.05348369
 -0.18306199 -0.2210289   0.19975956  0.93272141 -0.5301198  -0.40724002
  0.16056499 -0.12014998  0.38560229  0.71829074  1.2911889  -0.11644415
 -2.277298   -0.06962454  0.35387043 -0.18695502 -0.15323616 -2.43250851
  0.50798434 -0.32403233 -1.51107661 -0.87142207 -0.86482994  0.60874908
  0.5616381   1.51475038  0.64792481 -1.35164939 -1.40920928  1.13072535
  1.5666862  -0.2377481   0.55880299 -1.50489128 -1.94392176 -1.17402368
 -0.35718753 -0.52137639 -0.23011406 -0.49101443][ 6.79301145e-01  1.42754695e+00  3.61974628e-02  2.02999749e+00
 -6.34404710e-01 -5.25103394e-01  3.87734663e-01 -3.54798762e-01
  1.17705226e+00 -6.41107815e-01  1.32269399e+00  1.94175016e-01
  2.56545278e+00 -4.64114906e-01 -2.02693908e-01  1.45651817e-01
 -2.18102797e+00  6.02265128e-01  4.80846113e-01  1.09318364e-01
 -1.54439578e+00 -1.54656104e+00  5.86618519e-01  1.17517869e+00
  1.59446463e+00 -8.95441524e-01 -1.03079803e+00 -2.71938800e-01
 -1.97573014e+00 -5.88931176e-01  8.51789638e-01  1.63460250e+00
  2.79155454e-01  1.64055365e+00  4.10872938e-01  1.91363915e-01
 -1.71441187e-01  1.86937046e-01 -2.54852947e-01 -1.40910752e-01
 -6.61891835e-01  2.59031902e-01  1.44484150e-02 -1.47958003e+00
 -2.40700502e-01 -8.55671392e-01 -2.04820046e+00  4.83883649e-01
  1.55868825e+00  2.36973019e+00  1.56241953e+00 -8.70801553e-01
  1.17524499e+00  1.11989900e+00 -1.98782953e+00  8.61288515e-01
  6.27177035e-01  1.62808250e-01  2.88616716e-01  5.83073827e-02
  1.63193585e+00 -4.01788834e-01 -1.99939393e-01  7.38898371e-03
  2.75664075e-01 -1.76324980e+00  1.38797381e+00  2.26199757e-01
  5.69124596e-01  1.97315992e-01 -1.86441271e-01 -3.55241513e-01
  9.61141423e-02  1.52052341e-01  1.15526176e+00  3.46057746e-01
 -1.33488669e-01  1.98656511e+00 -1.27942616e+00 -1.34020918e+00
  3.54602052e-01 -2.12373285e-01 -1.77459599e+00 -3.12229661e-01
 -7.10655771e-01  1.13112860e+00 -6.21251770e-01  1.05061465e+00
  4.59781700e-01 -2.06330912e-01  2.11718286e-02  4.28658740e-01
 -2.30803851e+00  3.27068408e-01 -3.79119611e-01  1.79791937e+00
 -6.91268957e-01  1.14256392e+00 -2.51492462e+00  8.14625015e-01
  2.76102754e-01 -2.47016491e-01 -1.20889310e-01 -2.60560591e-01
  4.23003210e-01 -1.34248565e-01 -1.78773771e+00 -1.85810857e-01
  2.23472174e+00  4.68462049e-02  2.90787946e-01 -4.38054507e-01
  1.74054466e-01  1.77945558e-01 -2.61201919e-01  8.63263399e-01
 -9.23077957e-01 -1.30195208e-01  5.05053752e-01 -2.67004179e-01
 -1.22387965e+00  5.58264219e-01 -9.82160958e-01 -4.47308162e-01
 -8.28147589e-01 -1.10728414e-01 -4.29385973e-01 -4.74589867e-01
  6.80978927e-01  1.76260890e+00 -3.57514214e-01  5.22655174e-01
 -3.55413490e-01  9.89422460e-02  1.12775134e+00  5.02932390e-02
 -8.15547351e-01 -7.29926612e-01 -6.16746425e-01 -1.33042213e-02
  8.58011452e-01 -1.35879684e+00 -1.03728917e+00 -9.24541212e-01
 -1.74940542e+00  1.32592268e+00 -3.63786438e-02  1.90077932e+00
 -1.42433368e+00  1.29418231e+00 -7.01648532e-01 -4.07369685e-01
 -9.88964457e-01 -9.49863859e-01 -1.32374541e+00  2.16332958e-01
 -1.31420103e+00 -2.41801865e-01 -9.20154424e-03  6.66610685e-01
  1.00391722e-01  3.21325833e-01  5.14411561e-01 -1.72508653e-02
  3.63347919e-01 -9.79720191e-01 -7.75470435e-01  1.89751081e+00
 -1.17342144e-02 -7.10500675e-01  1.37987990e+00 -1.56842611e-01
 -6.46491027e-01 -1.44899155e+00  7.79491866e-01 -1.08630091e+00
 -5.39032580e-01  6.44099988e-01  1.83633574e-01 -8.64268738e-02
 -2.13987782e-01  1.14592735e+00  2.23027415e+00 -5.48760829e-01
  5.68904091e-01  1.92880031e+00  1.07905705e+00 -6.86831626e-01
 -4.30680627e-01 -5.97968543e-01 -9.13443410e-01 -6.23905153e-01
  2.61875479e-01 -5.87029005e-01  8.76199863e-01  1.23255464e-01
 -3.97125683e-01  8.86089920e-01  3.18971826e-01  2.64867626e-01
  1.04003845e+00  5.73265449e-01 -1.08898467e-01  9.37554843e-01
  3.09317802e-01  2.91730876e+00  1.09868850e+00  1.15321262e+00
  1.29099337e+00  7.98396113e-02  1.31289541e+00  2.33570276e-02
 -8.31173403e-01 -5.63986458e-01  5.27950554e-01 -1.56111989e+00
  2.08352921e-01 -7.28350085e-01  7.18216383e-01 -7.46173711e-01
  1.87230326e+00  7.67818129e-01 -1.26885896e+00  1.75875935e+00
 -2.27252509e-01 -7.27476110e-01 -1.02379932e+00  5.67764740e-01
  1.50452187e+00 -5.78426973e-01 -9.97620842e-01 -1.13970009e+00
  1.49640531e+00  1.67072922e+00 -3.48471140e-01  5.37705087e-01
 -2.90545028e-03 -6.06303023e-02  9.64022632e-01  4.40956001e-01
  3.29489967e-01 -2.92578935e-01  8.15600360e-01 -2.82005902e-01
  4.99224881e-02  2.19477494e-01 -1.20115566e+00 -2.99094967e-01
 -3.12603014e-01  1.01203086e-01 -1.11181809e+00 -1.18655170e+00
  1.62346210e+00  1.15644361e+00  8.89039357e-01  1.82481879e+00][ 4.19595238e-01 -9.10787349e-02  4.82175748e-01 -1.87928699e+00
 -1.09808315e+00  7.58637063e-01  3.26154832e-02 -1.27763634e+00
  6.58536872e-01  9.98901649e-01  6.67879561e-01 -3.02967794e-02
 -8.36049480e-01  1.07594938e-01  4.26924329e-01 -3.58588798e-01
  6.03035910e-01  3.14431934e-01  3.33114550e-01 -2.03253979e+00
  1.08109299e+00  1.72439172e+00 -4.02467625e-01 -1.47689898e+00
  6.38929319e-01 -4.65659732e-01 -9.67012371e-01  1.21771626e+00
 -1.38337935e+00  7.17428622e-01 -1.24773412e+00  1.46226798e+00
  5.16552466e-01 -2.57394997e-01  1.49369958e-01  5.82087387e-01
  8.29894377e-01  8.27791428e-01  5.46730266e-01 -4.77381662e-01
  6.64079548e-01 -1.31132438e+00  1.00409310e+00  8.73005837e-01
  1.39408104e+00 -5.88779607e-01  1.86211698e-01  8.58286001e-01
  3.17857879e-01 -4.26667284e-01  3.07331067e-01  6.80320347e-02
  9.95703941e-01 -6.28462553e-01  3.39487806e-01  2.92931126e-01
  7.57328124e-01 -7.28922452e-02  1.27314636e-01 -7.09496749e-02
  3.40658626e-02  8.35916276e-03 -3.26744551e-01  2.82729979e+00
 -8.43911488e-01 -1.17340991e+00 -7.95626613e-01 -7.10052549e-01
  1.14365712e-02  1.43093280e+00  1.68838378e+00  2.37324364e-01
 -2.49821271e+00  3.84359353e-01 -1.31065457e+00 -5.00701575e-01
 -1.14972279e+00  4.25622580e-01 -6.26607445e-01  7.72119677e-01
  4.77302396e-01 -2.40069567e-01  8.05603706e-02  9.17419766e-01
 -3.72131916e-01  9.15618885e-01 -1.93160067e-02  2.69397453e-01
  7.99240871e-01  1.33153252e+00  5.20812199e-01  5.83718840e-02
  7.20685935e-01 -1.54544764e+00  1.63896160e+00 -1.32549127e+00
  9.03709433e-01 -5.64163931e-01  5.07251585e-01 -1.16567424e-01
  3.03589759e-01 -8.00787040e-01 -2.16062800e+00  4.06655649e-01
 -6.00504339e-01 -6.48635768e-01 -7.25323137e-01  1.98441125e+00
 -5.82192438e-01  3.26812979e-01 -1.16044319e+00  1.52309671e+00
 -5.56267969e-01 -2.60064181e+00  2.71194987e+00 -1.09814863e+00
  1.30893233e+00  7.33072561e-01  6.52179636e-01 -2.31484830e-01
  1.89198752e-01  1.22393601e+00 -3.00930716e-01  2.51309632e-01
  9.28290215e-01  8.33888372e-02 -4.24983195e-01  1.45167891e+00
  3.41688599e-01 -1.25172665e-01 -7.75894824e-01 -1.00559722e+00
  8.93784105e-01  9.49268086e-01 -2.17071106e+00 -6.15491639e-01
  9.64888137e-01  2.42430662e+00  2.15035381e+00  9.41866175e-01
  1.37333246e+00 -5.27419457e-01  7.74534524e-01 -1.23716470e+00
 -5.61876346e-01  3.20971083e-01  2.16793707e+00  7.47963329e-01
  2.73827091e-01 -1.70083563e-01 -1.32244297e+00  6.02863002e-01
 -3.49093697e-01  2.39044706e-01 -8.89330914e-01  1.21254954e-01
 -1.53702887e+00  5.03906219e-01  1.31972591e+00  9.13950815e-01
  2.11382376e+00  3.24553516e-01  5.05363442e-01  5.14864838e-01
 -8.79729802e-01  2.15323347e+00  9.88578084e-01 -2.42826421e-01
 -9.02831743e-01  5.81509283e-01  8.57547554e-01  1.37884868e-01
  1.86074517e-01 -1.88116833e-01 -2.74739573e-03  1.33514133e+00
  1.40061789e+00 -1.50017688e+00  1.38878875e-01 -1.20410135e+00
 -1.33569545e+00  5.85952787e-01 -8.41569338e-01 -3.15335745e+00
  6.45152653e-01  1.28214183e+00  2.03877714e+00 -3.96293292e-01
  1.44544531e+00 -2.62101164e+00 -1.04339961e+00  5.18969371e-01
  4.71534268e-01  1.32041791e+00  9.56689490e-01 -8.15700197e-02
  1.52924786e+00  6.86482640e-01  1.71708873e+00 -8.04276993e-01
  3.00253676e-01 -4.29595674e-01  8.05913307e-01 -2.19552167e-01
 -2.51852197e-01 -1.32648965e+00  3.08204134e-01  1.11548937e+00
  1.00819561e+00 -3.01603199e+00 -1.61964569e+00  2.00514053e+00
 -1.87626349e-01 -1.48941229e-01  1.16533544e+00  1.96645295e-01
 -6.32590142e-01 -2.09846949e-01  1.89716069e+00 -1.38139115e+00
  1.30122484e+00 -3.12392115e-01 -2.71228715e-01  1.86291309e+00
 -6.42873595e-01  8.35058365e-01 -3.63053451e-01 -1.43206703e+00
 -1.66019870e-01  1.16892637e+00 -1.85892178e-01  5.49421827e-01
  1.88553315e-01  4.68313580e-02 -4.17497823e-01  1.31782301e-01
 -2.03289345e+00 -4.48321656e-01 -1.80394363e+00  2.69698847e-01
  3.54660486e-01 -7.96065249e-01  8.01307608e-01  3.95830551e-01
  2.93572087e-01 -3.61403861e-01  4.72793004e-01  1.05420704e+00
 -6.60443191e-01 -8.16844426e-01  1.18901076e+00 -2.31842848e+00
 -2.61729009e+00 -1.81472709e+00  1.81741030e-01  1.52374207e-01][ 4.96505038e-01  7.59772904e-02  1.53737981e+00  1.57578345e+00
  1.15901064e+00 -1.15580027e+00  3.63577886e-01 -8.66202681e-01
 -5.00710366e-01 -1.02336220e+00  1.07124266e-02  5.44124084e-01
  7.86920498e-02 -1.19336869e+00 -1.52603519e+00 -7.62084805e-01
 -7.77638357e-01  7.84273167e-01 -3.19280859e-01 -1.88666339e-01
 -1.56935067e-01  1.09684815e+00  1.63611512e+00  4.27058537e-01
 -2.48305833e-01  1.40250153e+00  4.38241393e-01 -4.21096885e-01
  1.01057371e+00  2.07229946e-01 -1.43403073e+00  6.26906306e-01
  2.99825202e-01 -1.85664142e+00 -2.15104316e+00  1.36301005e-01
  6.83356255e-01  6.08580050e-01 -1.36097977e+00 -3.47009949e-01
  6.66589919e-01 -1.53575221e+00  8.52829822e-02  2.13329269e-01
  9.23755969e-01 -2.45389193e+00  1.44987327e-01  2.01812185e+00
 -6.21207339e-01 -3.16239328e-01  9.53992230e-01 -7.63142601e-01
  1.15695488e+00  5.40533161e-01 -1.57407343e+00  1.00593418e-01
 -1.45898196e+00  9.52547818e-01 -1.68067447e+00 -1.81175371e+00
 -1.13730441e+00 -8.03072666e-01  1.31494079e+00 -1.82575352e-02
  2.91004542e-01  1.07489975e+00 -6.97809900e-01 -5.78325717e-01
 -8.47452538e-01  7.84904647e-01  1.63327621e+00  2.58742494e-01
 -6.23279994e-01 -5.20361027e-01 -1.11231429e+00  7.31145370e-01
 -1.06292876e+00 -2.54633065e-01 -1.16896134e+00 -1.89946310e+00
 -2.53995540e+00 -8.89961510e-01  2.18078498e-01 -3.17815566e-01
 -2.23574887e-01 -1.07137988e+00 -9.31681562e-01 -1.06770234e+00
  2.11233661e-01  2.04765484e+00 -1.36372510e-01 -1.36928041e+00
  1.27262333e+00 -9.98566415e-01  5.57532641e-01 -4.42655410e-01
  8.10832058e-02  3.43266343e+00 -7.47526269e-01 -5.86680440e-01
  3.75235451e-01 -2.19467638e-02 -4.06070901e-01 -6.88407543e-01
  5.90493866e-01  1.07737657e+00 -9.52084072e-01 -1.13643310e+00
  1.82990624e+00 -1.42515617e+00  7.15333449e-01  4.39127373e-01
 -1.10296955e+00  7.59493593e-01 -1.10321635e+00 -1.08955110e+00
 -1.38955024e+00  8.34283205e-01 -4.49345848e-01  1.08525132e+00
 -8.10140031e-01  6.14662586e-01  1.40741059e+00 -8.60135131e-02
 -1.12545275e+00 -3.42570942e-01  1.25673747e+00  7.39093836e-01
 -3.85988094e-01 -1.74437237e+00  7.15536785e-01  1.63090625e+00
  1.64859408e+00  4.32790200e-01 -1.91029171e-01 -7.86121270e-01
 -5.72601817e-01 -1.64975030e+00  2.13455156e+00 -2.69643893e-02
  2.38440514e+00 -7.44974154e-02 -1.61831793e+00  1.86156510e+00
 -8.59827024e-01 -4.37908211e-01  1.64855109e+00  1.45877321e+00
 -2.02620642e+00  1.05476994e-03 -1.08953501e+00  5.39138222e-01
  1.81217709e+00 -5.17489822e-01  1.49322280e+00 -9.28644275e-01
  2.17227052e+00 -8.25653891e-01 -4.63337968e-01  2.96957368e-01
 -1.40059445e+00  1.54960885e+00 -1.07001690e+00  6.13951564e-01
 -1.28913004e+00  1.09782946e-01 -1.05261754e-02 -3.88240907e-01
  4.89219194e-01 -1.11683226e+00  1.52186577e+00  2.02447357e-01
 -2.79144404e+00  2.00556158e+00  4.52713622e-01  1.55356522e+00
 -1.76936557e-01 -2.26261533e+00 -4.19717870e-01 -1.22606996e+00
 -3.84824623e-02 -4.82726862e-01  2.09012280e-01 -1.76440808e+00
  5.37824044e-02 -4.59581833e-01  6.33508871e-01 -1.69230255e+00
 -4.25070976e-01  1.65839934e+00 -1.18106290e+00  7.38053685e-01
  1.33050612e+00 -1.00897684e-02  9.88510642e-01  1.04143963e+00
  1.56975551e+00 -3.67832201e-01 -1.12299083e-01  8.04122851e-01
 -7.45644050e-01  4.80507067e-02 -6.98570662e-01 -2.32904112e+00
  3.34915144e-01  1.70243005e+00 -3.72064681e-01  8.42973909e-02
 -4.53104951e-01 -7.40963343e-01  1.36104464e-01  1.07293110e+00
  2.21584334e+00  8.26476557e-01 -9.61363803e-01 -1.42701563e+00
  1.30683059e+00  3.16714992e-01 -6.10463243e-01 -1.05617214e+00
 -8.07722367e-01  1.23342491e+00 -2.23593720e-02 -1.40046998e+00
  8.72578990e-01  3.10102596e-01 -2.91132171e-01  6.07715248e-01
 -8.27683957e-01  9.63904597e-01 -1.42486090e+00 -9.03442726e-01
 -1.37688304e+00 -4.16559060e-01 -7.57451033e-01 -3.62645919e-01
  4.76783178e-03  5.54252540e-01  1.46532073e-01  2.51859703e-01
  1.60432394e+00 -2.66490561e-01 -1.45833594e+00  9.51381812e-01
  1.83586955e+00  1.87288694e-01  8.39534223e-01 -6.55616687e-01
  1.85675354e-01  6.37025319e-01  3.78575577e-01 -5.39697653e-01
  1.63062979e+00  1.72816084e-01  9.30198206e-01  4.05778987e-01][ 0.87367422  0.9332533  -0.21615515  0.83367881  2.16045573  1.99899201
  0.76404142  1.68725522 -1.30797134  1.47239631  0.0748761  -1.7869354
  0.16521059  0.9762963  -0.69602767  1.93713158  1.34922768 -1.27511386
  1.00909026  0.11197269 -0.55168024 -0.31663164 -0.444995   -1.21627102
 -0.44832311  0.69268891  1.42594203  1.45833834 -0.57336073 -0.11724768
 -0.85937132  1.03000249 -1.64815292 -1.36327656 -0.6358467   0.25147344
 -0.32114798  0.03306391  0.04753462  0.23327973 -1.03446298 -0.33935977
  0.57761234  0.28022916  1.09330663 -0.74622428  0.90626141  1.46662474
 -0.14259029  0.26593014  0.22518943  0.53567059  0.38792111  1.46948771
  0.51336494  0.8645017   0.33152673 -1.04177028  0.43336035 -0.22995602
 -0.63508742 -0.89437064 -0.07039708 -0.6074641   2.03967227  1.5967719
 -0.2669303   0.70915717  1.1569625  -0.17283937  1.84823337  0.92211037
 -0.10170911 -1.79929913 -0.96595521  0.31869254 -0.43826395 -0.02075326
 -0.78731354  0.24692273 -0.45830204 -1.55270587 -0.34164325 -0.57202589
 -1.55165764  1.42317719 -0.07605097 -0.32686608  0.75037481 -0.08259524
  0.76729363 -1.48065462 -1.03665587  0.54522759  1.49189736  0.03001153
  0.21643426 -0.8234439  -0.02993588 -0.70893671 -0.16023812  0.72228012
 -1.99876394  0.21302573 -0.80454159 -0.64658222  1.13817277  0.29543966
  0.93362963 -1.76377472 -0.41021682 -0.45366712 -0.58942967  0.4402345
  0.89592148 -1.10677887 -0.96266256 -1.25195743  1.14760667 -0.51473492
 -0.10138078 -0.33221068 -0.96365658  0.37326097  0.38302687  0.94132558
 -0.22542008 -0.29708742 -0.58552175  1.48814157  1.00756699 -0.04038521
  0.64897361 -0.58584375  2.05447476 -0.59156625 -0.37968896 -0.37103152
  1.70123497  0.14760244  1.08441856 -0.11009696 -1.21297497  0.77548017
 -0.62645655 -1.31852251 -0.41607554  0.6316571   1.76428506 -1.38747793
 -2.19905799  0.930157    0.30005126 -0.56347291  0.41836192  0.72944307
  1.91206875 -0.13034193  1.27980017 -0.45175594 -0.50966874  0.42377343
 -1.1149675  -1.30195903  0.9631931  -1.96307507  0.11334826 -0.32474226
 -0.37302019 -1.33230529 -2.03590244 -0.66090848 -1.165218   -0.42541902
  0.0880361  -0.74176023 -1.0725253   0.29004136 -0.76183469 -0.95953182
 -0.29915327  0.28549144  2.10874843  1.61356155 -1.26338094 -1.32424922
  0.06471737  0.55699894 -0.13170556  2.1723328   1.17707022  1.64005737
 -0.41787062 -0.89687959 -1.07028829 -0.11378156 -1.25834992 -0.63379205
 -0.43076974  0.94428473 -0.47287556 -1.40706411 -0.44747327  0.18858291
  0.56091806 -0.92165905  0.64737512  1.38682559  0.48951662  0.23879586
 -0.44811181 -0.610795   -2.02994507  0.60794659 -0.35410888  0.15258149
  0.50127485 -0.78640277  1.01699569  0.11311058  1.49699525  0.16893767
  0.3186247  -0.27337714  1.47641399 -2.10349278 -0.53283196 -0.30505399
 -1.53042074 -0.79470265 -2.17212271  0.19038724 -1.40522754  0.36986047
 -0.2617817  -0.83271351 -1.55378261 -0.68284784  0.31062382 -0.12544719
  0.6662438  -0.78833027  1.60599352 -0.23795342 -0.84519543  1.31015923
  1.35756648 -0.09016932 -0.48430212  0.91007464 -0.89413697  0.93519154
 -1.38718052 -0.08339327  0.01175551  1.20809946][-1.82921963e+00  2.34436722e-01 -1.20710467e-01  2.90828716e-03
 -8.84105546e-01 -1.30189483e+00 -4.63137062e-01 -2.41663785e-01
  1.47518348e+00  1.11381644e-01 -4.27625467e-03  6.98346293e-01
 -1.61185464e+00  7.22566447e-01  9.15376141e-01  9.07143868e-01
 -3.32994062e-01 -1.23525000e+00 -9.84928506e-01  2.47453869e-01
  5.36764845e-01  1.27654978e+00  1.52143405e+00  8.71248281e-01
  3.39287984e-02  2.64919957e-01 -2.35312370e-01  1.05486845e+00
  5.94271549e-01  2.15859672e-01 -1.25560054e+00  1.04666138e+00
 -1.52688637e+00  1.23178219e+00  9.84629504e-01 -1.58706882e+00
 -4.84643360e-02 -1.24139426e+00 -1.44619320e-01  5.55169974e-01
 -1.36638100e-01 -1.36386802e+00  2.60827277e-01  2.59487707e-01
 -2.72348106e-02 -1.04513897e+00 -3.49781662e-01  2.68527168e-01
 -1.55049821e-01  2.11262212e+00  2.56079437e-01 -2.06761334e-01
  4.82597952e-01 -1.10543235e+00  4.20755200e-01  1.61679423e+00
 -8.83771319e-01  2.98835019e-01  7.67113096e-01 -1.69334871e+00
  1.63888893e+00 -1.04499819e+00 -3.35054058e-01  3.80672178e-01
 -2.32602884e-01  8.02936667e-01  1.50925417e-01  5.69751291e-01
  7.49734237e-02  1.47200161e+00 -2.01549801e+00  3.64094247e-01
 -3.00615128e-01 -9.59032617e-01 -8.11610011e-01 -5.71979978e-01
  5.78410537e-01 -8.96130436e-01 -1.63183576e-01  2.75248870e-01
 -1.15579165e+00  1.11234865e+00  2.42158930e+00 -6.74017307e-01
  9.19447184e-01 -3.09679480e-01  5.33367456e-01 -1.81705195e-01
  2.20866163e+00 -3.24331816e-01  7.93930409e-01  6.07366153e-01
 -1.08396014e+00 -2.16026941e+00  5.79087216e-01  8.44518440e-01
 -5.36705418e-01 -6.33374668e-01  9.76803256e-01  8.52833425e-01
  9.55876647e-01  2.61402036e-01 -7.88276461e-01 -1.21797338e+00
 -1.99313655e+00 -5.76817579e-02  1.91916876e+00  4.77894556e-01
 -7.97402435e-02 -1.52074622e+00 -6.67930067e-01  4.93877562e-03
 -2.22219476e-01  9.08339690e-01 -1.58606770e-01  6.95305995e-01
 -1.14218260e-01 -1.89767166e-01  1.25913353e+00 -7.51977434e-01
 -2.83052868e-01 -1.29273740e+00  9.67393546e-02  1.06950100e+00
  6.81401910e-01  7.34011810e-01  1.05304238e+00  6.25218187e-01
  7.58259432e-01  4.03724077e-01 -9.75388545e-01  5.26095100e-01
  9.45886375e-01 -8.91909655e-01  2.35989981e-01  1.08281307e+00
 -3.73476455e-01 -1.32110657e+00  6.15339719e-02  1.59368556e+00
 -9.12945419e-01 -1.05390070e-01 -7.51030947e-01 -3.58967294e-01
  2.34771281e-01  1.47681361e+00 -7.16644026e-01 -7.08654994e-01
 -8.72502440e-01 -1.09379045e+00 -1.53470006e+00 -8.51262199e-01
 -1.05813269e-01  4.08653865e-02  1.17244919e+00 -8.21600485e-01
 -7.79938124e-01 -7.56837241e-01  1.95745919e-01 -1.58472417e-01
  7.77208795e-01 -7.89140807e-01  9.13258853e-01  9.42513143e-01
 -2.62467702e-01 -6.22537454e-01  1.81169089e-01 -7.91533765e-01
  1.99220474e+00  1.40887303e-01  7.92440769e-01 -1.26710730e+00
 -1.75075758e+00  6.87266205e-01  5.15886719e-01 -7.60604757e-01
 -5.66775650e-01 -6.79943801e-01  2.27826915e-01  9.23852128e-01
 -1.54486021e+00  4.78745131e-01 -8.74167721e-01 -5.30931964e-01
 -1.60435208e-01 -1.36145404e+00  2.84393857e+00  2.42497747e+00
  7.52269859e-01  6.56015181e-01 -1.04361019e+00  2.37734888e+00
  1.83172649e-02 -1.23395510e-01  1.20399358e+00  2.60800066e-01
 -7.76603611e-01 -2.18921430e-01 -3.76085779e-01  6.46556934e-02
  5.54457539e-01  5.32758904e-01  1.30120189e+00 -4.10306422e-03
  9.58068518e-01  1.70666184e+00 -1.22602261e+00  7.12570563e-01
 -1.07233211e+00 -1.50707559e+00  1.58466204e+00  1.13548397e+00
  5.23372944e-01 -4.76931398e-01  1.50356122e+00 -1.36716773e+00
  6.73929198e-02  4.85177554e-01  1.28712693e+00 -1.52642770e+00
 -3.06414136e+00  1.15370313e-01  3.17427155e-01  1.73680273e-01
 -8.77246861e-01 -4.41607998e-02 -1.54007907e+00  4.20593392e-01
  8.92588396e-01 -7.32031885e-01 -2.00394177e+00 -1.29781710e-01
 -1.98500319e-01 -8.06069943e-02  1.30357545e+00  1.38595479e-01
  2.08412285e+00  3.80743453e-01 -1.08723367e+00  1.13361346e+00
 -9.03443676e-02 -4.88770857e-01  2.79401351e-01  1.14783811e-01
 -1.55859419e+00 -8.49518776e-01  1.15200657e+00  1.75927892e-01
  6.38985954e-01  1.02015264e+00  1.79261307e+00 -6.39096500e-01
 -7.03395059e-01 -9.24509595e-01 -6.00450542e-01 -9.12586767e-01][-0.01500073 -0.10823277  0.58123827 -1.19065123 -0.65382452  0.35946107
  0.69864798 -2.31661731 -0.60207062 -0.25362039 -2.04115418  0.44870036
  1.20412753 -1.94309941 -1.56492877  0.95218213  1.13533923 -1.27277564
 -0.98762071  0.65941881 -0.24302373 -0.52131643  1.59413738  0.29779904
 -1.81944884  0.25331391 -1.40525766  0.74205658  0.98199366  0.438562
  0.92781985  1.96427946  0.72667997 -0.37195994 -1.09330391  0.22445073
 -1.03503817 -1.43874527 -0.4618495  -1.77831813 -1.30047378  0.50115639
 -0.47525527 -0.30663438 -0.0259161  -1.95419182  0.18622375 -0.00382994
 -0.04520647  0.34284631 -2.16492757  1.91182951 -0.30335111 -1.43421372
  0.11152988 -1.27116772  0.0663927   0.54060223 -1.31889683  0.84542643
  0.1310922   0.34908368  0.40406811  0.51243415  1.1203618   0.86045445
  0.48691035 -0.76433963  0.2863311  -0.55783395 -1.44875227 -0.04137688
 -0.9128101   1.13514139 -0.03770919  0.04526257  0.77520612 -0.41812392
 -0.25659486  1.16467116 -1.3836786  -0.86695522 -0.13369387  0.78478919
  0.24979247 -1.15751684 -0.91977397  1.69446002  0.31626928 -0.61844122
 -0.48427752  3.7402489   1.34027191 -1.63647401 -0.45877498  0.72282268
 -0.27548108  1.1390533   1.76424958  0.0075604   0.29473951 -0.16866229
  0.88279907  1.49992516  0.93439537 -1.08297761  0.75436307 -0.57875393
  1.74836197  0.47628382  1.05812873 -0.02105939 -0.03233791  0.43077763
 -0.03080131  1.5789139  -1.1421963   0.68541645 -0.5866598   0.86104624
 -1.79711609  1.28612625 -0.30936878 -1.23367315  0.71668431 -0.19177684
  0.27713883  1.2279087  -1.09119056 -0.73637713  0.08040713  0.5675154
 -0.70361498 -0.79314532  0.77133529  0.98363864  1.39727326 -0.29513533
 -2.5822348   0.52339028  0.7599321  -1.46682315  0.09038025  0.27530828
  0.34035496 -0.46469447  0.08343319  0.6003945  -1.77617344  0.91108243
 -0.36583665  0.76450212 -0.70262028 -1.71176487  1.18113873  1.64113619
 -1.86053074 -1.29227662  0.09417316 -1.04936032  0.76025175 -0.7970639
 -0.51758053  0.21143497 -2.1782251  -0.31992259  2.01464887  0.58688475
 -0.99910951  1.04601512  2.06318544  1.27466848 -0.58461084 -0.65759614
 -0.37047685 -1.04905337  0.02921579 -1.00568932 -0.87523939  0.32081877
 -0.56362206 -0.20438481  2.14817824  0.36821949  1.19032323  0.43791813
  0.60297902 -1.34917521 -0.54697191 -0.26225387 -0.44662665 -0.2029085
  0.15990174 -0.22261241  0.68959282 -0.24779751  1.08395198 -0.01309541
 -0.59467626 -1.25139076 -0.76938362 -0.25431072  1.20205935 -1.27187358
  1.04015274 -0.09176419 -0.83144508 -1.31909123  0.54899513 -1.90623285
 -0.46151297 -0.44036193 -0.16312501  0.58118494 -0.61464092  0.12034243
 -1.21784605  0.05769209  0.60835538 -0.35169188  0.36866569  0.10463232
 -0.34428915 -0.06081747 -0.19502088 -1.97424776 -1.49916286  0.43285223
 -2.08834704  1.15838179 -1.40997114  0.03052529  0.47213592 -0.63673502
  1.16258855 -1.37085355  0.90676638  0.14855655 -0.15118582  1.01169595
  0.53925382 -1.20447744  1.41181061  1.0039964   0.10380768  0.14968753
  1.33623672  1.65817225  0.61265849 -1.16262143  0.12025015  0.82001991
 -0.83449834 -1.20586691  0.00577839  0.11236385][ 3.77829791e-01  1.23029934e+00 -2.18242540e+00  9.98614480e-02
 -2.05677724e-01  1.57492457e-02  1.67433255e-01  1.02574955e+00
  5.58932736e-01 -4.56999232e-02  8.91175301e-02  1.05357392e-01
 -1.32965782e-01  1.32201378e+00 -1.91223829e+00 -1.40149619e+00
  1.59763696e+00  5.73653344e-01  6.30641673e-01  1.15818685e+00
 -2.01835505e+00  1.43913540e+00 -1.16646415e+00 -9.82738970e-01
  1.03624278e+00 -1.15571595e+00  5.30921213e-01  1.42732939e+00
 -6.49593548e-01 -5.89080151e-01  6.72028568e-01  8.96321647e-01
  3.41725221e-01 -1.58136801e+00  1.61020402e+00  6.22494931e-01
 -2.35686491e+00 -8.99787493e-01 -1.06003426e+00 -7.77697619e-01
  2.56052386e-01 -7.15232141e-01  1.22494701e+00  1.10873793e+00
  7.42506821e-02 -1.05322697e+00 -6.13005075e-04  4.06759726e-01
  1.16245739e+00 -4.64294102e-01  7.97219618e-02 -9.96739771e-01
 -4.60982373e-01  1.16833817e+00  1.59620348e+00 -3.44974120e-01
 -2.64138943e-01 -7.60662166e-01 -1.52959798e+00  3.72760482e-01
  4.72690317e-01  6.04447081e-01  2.61319795e-02  5.29211304e-01
  1.65381900e-01  1.24445906e+00  3.74576112e-01  1.45133512e+00
  1.07236187e+00  3.59016544e-01 -1.24230051e+00  5.17272311e-01
  3.20761981e-01  1.91861953e+00  7.42341574e-01 -1.13127121e+00
 -7.92863735e-01  9.63936924e-01 -1.93112262e-01 -1.20289001e+00
  4.90761382e-01  4.93649237e-01 -1.18541750e-01  8.61596237e-01
 -1.04233925e-01  1.86481534e+00 -1.09750980e+00  9.07922087e-01
  9.90986171e-01  1.26686656e+00 -1.25254239e-01 -4.12994338e-01
  1.74067506e+00  5.46569103e-01 -5.85135280e-01  8.32351815e-01
  1.58708252e+00  6.66381056e-01 -7.25980055e-01  9.79424986e-01
 -1.53753484e+00  7.76819284e-01  9.78327543e-01 -2.21968900e-01
  2.77126501e-01  1.50280307e-01 -5.35795662e-01 -8.57600320e-01
 -2.78681348e-01 -6.22012154e-01  1.51384075e+00 -1.35527146e+00
  1.79921181e+00 -2.35410958e-01 -7.71038513e-01 -5.44245911e-01
 -1.04096285e+00 -2.03216732e+00  8.15989154e-01 -1.53647325e-01
 -8.38450291e-01 -1.30583295e+00 -5.62829044e-01 -1.25149940e+00
  1.29857162e+00 -1.89627793e+00 -9.58212816e-01 -8.83021730e-01
  4.75177393e-01  2.53774808e-01 -1.44793114e-01 -1.72224989e-01
  3.98071788e-01 -7.95438935e-01  4.83664733e-01 -1.32276242e+00
  5.40305516e-01 -5.07257203e-01  1.12837854e+00 -1.22335057e+00
 -4.53503119e-01 -8.20905371e-01  9.40218905e-01 -1.41129347e+00
  8.84147795e-01  4.63217223e-01  5.65973205e-01 -6.88159307e-01
  4.75340517e-01  1.75072180e+00 -6.91308538e-01  2.53189548e-01
 -2.63081253e-01 -1.10034640e+00 -8.24827594e-01  5.24850945e-01
 -4.53825567e-02 -2.45291986e+00  5.32288180e-01 -3.17589328e-01
  9.17747112e-01 -6.43634167e-01  2.30692727e+00 -9.48749252e-01
  7.66226191e-01 -1.07545982e+00  1.94955615e-01 -1.14751006e+00
  1.25484875e+00 -2.11038194e-02  1.49476918e+00 -9.72858453e-02
 -1.62435896e+00 -8.43117330e-01 -3.92168975e-01  1.38149942e+00
  2.72946214e+00 -1.14157068e-01  3.18016861e-01  1.25011223e+00
 -1.14130832e+00 -3.15603209e-01  6.69592696e-01  3.53133254e-01
 -8.43225327e-02 -9.77400710e-01  1.04189976e-01  7.12877299e-01
 -7.18420957e-01  7.44770949e-02  2.08974092e+00  4.77336660e-01
  5.93123566e-01 -1.03618857e+00 -5.50875650e-01 -3.17466171e-01
 -8.38677408e-01 -1.20910046e+00 -1.56577484e+00 -2.07879838e-01
  8.32818744e-01  6.16780564e-01  6.76281511e-01  9.12086858e-01
 -8.58823151e-01 -6.83270718e-01 -2.35585652e-01 -8.91257639e-01
  2.49671015e-01 -6.63155831e-01  1.11395274e+00 -8.77851543e-01
  5.62541784e-01  1.67876040e+00 -1.21522542e+00 -5.51323144e-01
 -7.68158476e-01 -1.06027382e+00  2.60688481e-01  5.00319519e-01
 -7.32807437e-01 -5.12482626e-01  2.42410752e-01  3.13961743e-01
 -1.11137293e+00  2.30163450e+00 -2.33441049e-01  8.81197045e-02
 -6.28069013e-01 -2.58695436e-01 -9.04288639e-01  1.62823871e+00
 -1.84718751e+00 -1.84949364e-01  6.61114463e-01 -1.59721424e+00
  4.61015964e-01  1.31650640e+00  2.96369672e-01  7.51222125e-06
 -3.42108001e-02 -2.81499321e-01  5.80177645e-01 -8.63526597e-01
  3.26813062e-01 -3.38525725e-01 -5.81622850e-01 -1.15637559e+00
  6.74528219e-01 -5.90645379e-01  1.07751998e+00 -2.80454189e-02
 -3.09223796e-03 -1.09787271e+00 -1.00011572e+00  5.46998230e-01][-0.09618769  0.05874243  0.65101451  0.52184484 -0.3558323   2.89438619
  3.13504734  0.44031311 -1.43919436 -0.89361014  0.58173929 -0.57660689
 -0.08170227 -1.99674554  0.43618152  1.2084426  -1.21437336 -0.34350003
 -0.35902061 -2.48489541 -0.47565008 -0.56916456 -1.39355697 -0.87454052
  0.24685327  0.34138905  0.32486855 -0.5759522  -0.82490452  0.14538798
 -0.39314216  1.03641701  1.16430865 -0.47261313 -1.63348696  0.18335976
 -0.6688955   0.82229707  0.70009952 -1.05060936  1.04823056  1.39227734
  0.38622388  0.61014604 -0.52092805 -0.8591604   1.25488687  0.24110912
 -0.0916752  -0.06892502  0.75276147 -0.21565127 -0.4984279  -0.30474361
 -0.1624972  -0.48647135  0.08828231 -0.49159863 -0.45492784  1.9865392
  0.00726048  1.70798618 -1.00476461  0.75481673  0.01131801  1.69101002
 -0.46518635  1.79232299 -0.5886461   0.00762745 -1.15608593 -0.03455115
 -0.2068231  -1.10938582 -1.84599655  0.89640694  0.49513758 -0.69633852
 -0.10679364 -0.72520385 -0.13807466  0.25004269  0.35311566 -0.50097687
 -0.20980438  0.51611688 -0.65932645 -0.55555712  0.08185021  0.49476225
 -0.42394975  0.7965308  -0.07006412 -0.67274253  0.09441541 -1.45669029
 -1.83589904  0.33902513 -1.77632334 -0.80194708  0.99867059  0.33169406
 -0.84996687 -0.01499043 -1.43389573 -1.13919031 -0.1678181   0.58744955
 -0.03372952 -0.08429427 -0.65034433  0.07451824  0.79601782  1.10374802
  0.34277341  0.12197819  0.35517268  0.52536021 -0.48177637 -0.36911192
 -0.66344497 -0.62879943  1.88302954  0.78493772 -0.68473971  0.04231678
  0.3074892  -0.08995843 -0.96375439  1.44652864 -1.18842461  0.86834038
  0.05403696 -0.8134718  -0.16150411 -1.85049913  0.27497257  0.72846461
 -0.53006095  0.29785793 -2.49889427 -0.53139554 -1.33740159  0.9252926
  0.19431319 -0.04723758 -0.1892287  -0.24288839  0.78506248 -1.0417528
  0.93225313  0.69958889  1.03075433 -0.34793667  1.08148592  1.00078593
  0.44959769  1.12286975 -0.44130164 -0.07314789  1.34759958  2.01739038
 -1.64663478  0.93704344 -1.25811592  0.2102915  -0.5878981   0.20568904
 -0.29823865  0.39407345  0.64974469 -0.34815582  0.6685634  -0.28757563
  0.68481946  1.17745439  0.16508508  0.23311264 -1.80272205 -0.77189048
 -0.62265658 -0.15065961 -1.40002289 -1.30106608 -0.07710696  0.20782527
  0.98619593  1.43275643  0.5282585  -0.36773197  0.69172086 -0.79834675
  0.21381773  1.78997593  1.47357393 -0.3023854   0.9703637  -0.38791702
 -0.61510601 -1.60933737  0.53689016  0.30594078  0.98449402  0.80592215
 -0.29952033  0.86310161  1.88073075  2.30128376  0.7724558   0.28847589
  0.38866409  0.08338967 -0.57556888  1.5772914   0.76250647  0.1464967
  1.48762097  0.83973148 -1.25627821  1.23663877 -0.40943126 -1.31758204
  0.2898594  -0.3101969  -0.74447281  1.58354729  0.05972218 -0.05222399
 -0.25136515 -0.39298233  0.1887792  -0.32114374  3.2383432  -1.05437504
  0.11724318 -0.47027328 -0.70254054 -0.66793852  0.02765505  0.93119471
  1.19450641  0.69664152 -0.42368177  1.92173817  1.7777336   1.76315828
 -0.47145316  0.62143464  0.71025428  0.58493273  0.5687548   0.54902271
 -0.30243146  1.20731703  1.37766662  0.63628393][ 0.05529735  0.40581712  1.24845728 -0.12748161  0.69943567 -0.73525046
  0.3792161  -1.27466182 -1.13691382  2.0884818   0.13164682  1.10371482
 -2.67684138 -0.23769846 -0.17578326 -0.55823854  0.13965557 -0.86634525
  1.25586114  0.65893289 -1.14435574  0.48465472  0.3145199   1.61088148
  1.0558686  -1.11831984 -0.77717532  0.994435   -1.32151338  0.59990204
 -0.67834807  0.50894507  0.53826482  0.37453366 -0.74681724  0.03353787
  1.22022248 -0.18459983  0.44667436  1.6487478   1.90952869  1.55468947
  0.14277767  0.10280336 -0.17660012 -0.51206758 -0.16395021 -1.41096597
  0.57802494 -0.28463515  1.13126487  1.05000344  1.39301575 -0.77680939
 -0.22667536 -0.73021282 -1.55909516 -0.67020297 -0.79274062  1.13060518
 -2.73914174  0.51031498 -0.25361932 -0.45766267 -0.3060365   0.46575756
 -0.09797565  2.37823962  0.19684576 -0.47084331 -0.52967537 -0.21617568
  1.59055673  0.54311372  1.37703746 -1.26421097 -0.48714225  0.06962854
 -0.20050817  0.70297294  1.05150072 -0.36612326 -2.87205025 -0.92281919
 -1.2005083   0.58252056  2.04346998  0.34307482  1.81977309  0.33801691
  1.12297476  0.32411306  0.75537433 -0.92699247 -0.31009478  1.50811157
  0.9297092  -1.35519043  1.07511569  1.23166934 -0.27560226  0.33404357
 -0.57406036  0.30839726  0.15711633 -0.38530291 -0.0405274  -0.54253737
  0.68896978 -0.64422632  0.3540425   0.2808103  -0.78814842 -0.39881188
  0.31251359  1.37442468 -0.64050246 -0.12385485 -0.18625244 -1.75340691
 -0.14788697  0.75192088  0.78131884 -0.48003474  0.53570976 -0.24885182
  0.35753176  0.93597491 -0.66375201  0.47973692 -1.63983876  0.97533861
 -1.54580085 -0.06373105 -0.18964366  0.86167039  1.78918543 -0.18801525
  0.00858861 -1.05864698  0.56517471  0.99797724  1.176571   -0.99608473
 -0.87348911  0.90461952  0.93917267 -2.04999323 -0.81656147 -2.19489265
 -0.19118359  0.14168904  0.34913395  0.45206922  0.65726231 -0.10072761
 -1.5118818   0.2137688   0.75116708 -1.41245885 -0.96778385  1.20120874
  1.63015193 -0.46505859 -1.30430751 -0.59835746 -0.82895532 -0.45722768
  0.82276104 -1.92208722 -2.04354913  1.94295389 -0.80443616  1.18365778
 -1.84525093  0.85860394 -1.41394014 -0.98735088 -1.39666019  0.54472583
 -1.04119356 -0.99842265  0.67365336  1.5678953   0.42932118  0.26104134
  0.7798494   1.66777823 -0.24831899 -0.97784699  1.8430945   1.41490115
 -1.21412921  0.81326146  0.40751601 -0.07101086 -1.15237487 -1.41083193
 -0.54756358 -0.07203962  1.6410492  -1.39892499  1.01822316  0.21290879
  0.81592551  2.02257577 -0.44357188  0.13790769 -1.68169918 -0.66983535
  1.56172007  2.0246659   0.16717911 -0.05219987  0.46082898  0.2970266
  2.25255306 -1.01040995 -1.68495412 -0.7449865  -1.3777551   0.113555
  0.05634373 -1.49327431 -0.03294189 -0.29377695  0.2398715  -0.64093746
 -0.40050736 -0.28787813  1.32891232 -1.1350582  -0.58249357  0.06484125
 -0.07262009  1.15632914 -0.30333372  0.34648199  0.0327583  -0.85388107
 -0.3073934  -0.02874411 -0.79903587  2.59625359  0.22344646  1.04556738
  1.66577009  2.0043766  -1.8031044  -0.64101437 -1.40127391 -0.49064402
 -0.3565606  -1.4717867   1.11033788  1.27475838][-0.70721776  0.68050805  0.85405084  0.66155578 -1.35810146  2.44537804
  2.08721374 -0.48923539 -0.46318414 -1.33076922  0.61483577 -0.00319257
  0.48200619 -0.42110123 -1.26234688 -0.96092037 -0.61727487  0.14922738
 -0.22756029  0.77892583  0.67816323  0.93402194  0.29661412  1.85597093
  2.14398591 -0.49139101 -1.05760927  0.76694847  0.58734305  0.80252668
 -0.49776365 -1.02430041 -0.15664848  1.73655662 -0.20218764  0.69608237
 -0.56290406 -0.8797462  -0.80052384 -2.25158044 -0.65548163  0.88344218
  0.04332045 -0.84600755 -0.05358867  0.25981355  0.83233235 -0.73133321
 -0.00758708  0.33288726  1.05347595 -1.25067806 -0.3058143  -1.79883846
 -0.8396497   0.33713424  1.7092077  -0.23818502 -0.40159445 -0.99946229
 -1.3667897  -0.86171592  0.62071751 -2.0958667  -0.20605839 -0.68315804
 -1.04550908  0.23788368 -0.79226631 -1.08760279 -0.58357615 -1.54448713
 -1.64461881 -0.79666242 -1.14517011  0.89112119 -0.08191281 -1.16405656
 -0.10602887  0.70113293  0.57640189  1.71465509 -0.80265172  1.28293245
 -0.36910331  0.07634064 -0.85844888 -1.03817031  1.81677792  1.89128734
  0.29587365  0.83435634  0.21478198  1.58197982 -1.78078792  1.63015214
 -1.68012101  1.59905076  2.13991844 -1.25311925 -0.7088275  -0.0123077
  0.83464591 -2.16917844 -0.15703548  0.66621114  0.78564891  0.65019471
 -0.45252481 -0.41095685 -0.56393527  2.52912789 -1.03072401  0.24257418
 -0.31701145 -0.16373546  0.32107287 -0.58167561  0.03759213 -0.44901419
  0.73329445 -0.40065236  0.05759879  0.00521394  1.88496533  1.85394511
 -1.1993958  -0.79851532 -1.46111949 -0.38897358 -0.12775302 -0.73145816
  0.3118749  -0.55014423 -0.09096474 -1.9027168   0.60003224 -1.01013865
 -0.48908438  0.57870467 -1.46831866  0.99063126  0.23223348  0.22134858
 -1.44026512 -1.37175136  0.03447448 -0.33548058 -0.61604246 -0.15911803
 -0.93066865 -0.18345448  0.50201897 -0.92763736 -0.87837907 -0.1585251
 -0.50145615 -0.11895247  0.02376914 -1.7672221   1.54142951 -0.24398451
  0.03671233 -1.24187994 -0.30065344 -0.34695937 -1.08535345 -0.276141
 -1.5973105   2.22382082  0.16700581  0.43432308  0.2306405  -0.85458091
  0.02149968 -2.71039374 -1.06680089  0.52886752 -0.31056366 -2.22339598
 -1.49682674  0.80119345 -1.80464689  0.02260113 -1.86986054  0.85827418
  0.48714002  0.88869014 -0.37658903  0.34432079  0.18060517 -1.33480329
  0.06167914 -0.71081529 -1.25121058 -1.16893959  1.09473176  0.8101676
 -0.38705067 -2.07284809  0.56869743  1.14683073  0.62039141 -0.26406316
 -1.43220509 -0.10010884 -0.91196379 -0.80469233 -0.0920211  -0.65055529
  0.05819377  0.91407301 -1.51724173  0.25263135  0.39786602 -0.30354527
 -2.05564329 -0.89091817  2.26633332  0.7092052  -1.21211498 -0.3987533
 -0.45077084  0.08236314  0.28817176  0.78618247  0.11289115 -0.89094654
  0.88338243 -0.78776509  0.53490305  1.80161671  0.12283712 -1.68267113
  0.60660164  0.38172253 -1.0726651   0.61345631  0.04422534 -1.09095113
  0.16034679 -0.18200459 -1.85138507  0.20987583 -1.60673588  0.45730477
 -1.4484817   0.45675173  0.09961805 -1.51233991  0.44398923  1.02866757
 -1.58662272 -0.96462034 -1.16362851 -0.40143952][ 1.35601977 -0.09615823  1.29525101 -0.29661553  1.16828809 -0.71606254
 -0.50138202 -1.75341347  0.70012891 -0.27003579 -0.5791901  -1.140488
  0.50101628  0.2257672  -1.08908715  1.2800581  -0.09881884 -0.27014897
  1.74506844 -0.18055798 -0.20237778 -0.39255649  2.14640218  2.13640549
  0.97422963 -0.18978997 -0.66284785  0.41396654  0.03192483 -1.59365932
  1.14381446 -0.50953679  0.64879469 -0.11862901 -0.07282092 -1.34342947
 -0.88004547 -0.65366244 -0.0220128   0.33829981 -0.28875506 -0.76208711
  1.05316616 -0.00918505  0.47576038  0.37394337 -0.87926356 -0.63884774
  0.85558682  1.9557536   0.47329157 -0.67508266  1.22850526 -1.64202033
 -0.84033206  1.27104823 -0.42630757  1.51382241 -1.71669457 -0.65708336
  0.33403441  0.19305897  0.27807979 -0.03249054 -0.62663497  0.99419774
 -0.66385739 -1.25602582 -0.11064557 -2.57159147  0.83099527  0.49112729
 -0.07335342 -0.68921409 -1.80830522 -1.72443367  0.67967573  0.09840744
  0.37836445 -0.14299532  0.3038025  -1.59489629  0.6436617   0.36087787
  0.89132381  0.11243736 -1.01490433  0.47430397 -1.17982489  0.98995707
  0.3176219  -0.66049618  0.37211054  1.59266833 -0.98494891  1.69639385
  0.09782983  1.10533529  0.29217365  0.48125579  1.79816255  0.18747991
 -0.14883641  0.18842558  1.09568752 -0.21402953 -0.92277764 -0.22532132
  0.57435765 -0.01364359  0.41423387 -0.75271497  1.3603768   0.38637491
  0.38851548  0.03052197  0.61371851 -0.0822529  -0.14421963  0.79237769
 -0.30227184 -0.05634109 -1.38605975 -0.23750038 -1.24413981 -0.93860356
 -0.66964061  1.90503559  1.11040423  0.32404939  0.30502878  1.18639776
 -2.07566393 -1.23934804 -0.05885274 -0.773816   -1.29818323 -0.42171234
  0.62298113  0.95177321 -0.06984265  0.29002926  0.61455369 -2.58690997
  0.64046439 -2.07669128  0.32053559  0.54194818  0.59794564 -0.58466839
  0.59299291  0.58549275  0.9637007  -1.56303703 -0.83114819  0.33329307
 -0.2168127   0.68839078  0.47135597  0.20729521  0.44545305  0.17765416
 -0.87625084  0.53006969 -0.63860067  1.55048198  1.06614256 -0.68921897
  0.15707628 -1.42732298  0.09341268  1.55482853  0.18681813  0.94281643
  1.22444264  0.13703126  1.11724592 -0.21108864  0.22425926 -1.51879366
 -0.73612379 -0.35774083  0.5481579  -1.11528361  0.15617259 -1.59963909
 -0.39881803 -0.69994289  1.59084434 -0.76568089 -0.15870792  0.89121282
 -0.72094745  0.42712281 -0.11980904 -0.92222659 -0.77322051  0.75052248
 -0.60355517  0.75357247  0.02670893 -0.85505361 -0.07494852  2.1145368
  0.06334523 -0.78754654  0.32777989 -0.38824456 -1.39512888  0.37005479
 -0.99743555  1.23673461  1.11629914  0.6752404   0.02245196 -0.87103747
  0.28743357 -0.76218483  1.07072559 -1.37665157  1.45171977 -0.10800987
 -0.6921749  -1.14657526  0.5679306   0.42387135  0.73911543 -0.10799263
 -0.58428201  0.10316465 -1.21682493 -0.16890314 -0.8391159   1.2798566
  0.46432212 -0.4047686  -0.51845314  1.05378331 -0.63514319 -0.13931111
  0.5641719  -0.76790907  1.26335905  0.25846788  1.5800176   0.00678399
  2.78736145  0.4061326   0.18724806 -1.33002957  0.26054347 -1.38553911
 -0.28842062 -0.32935997  0.89368049 -0.30907287][-2.80095486e-01 -7.86835913e-01 -3.66937692e-01 -5.58772738e-01
  1.81397459e+00 -8.57214729e-01 -1.15042010e+00 -6.23578259e-01
  1.08811053e+00 -1.93976381e+00  1.39236652e+00 -9.30313598e-01
 -9.93981121e-01 -1.32970782e+00  4.47175271e-01 -6.96127846e-01
  1.58319024e-01  1.27047721e-02 -2.41588774e+00 -9.11009887e-02
  3.79855283e-01 -1.28754828e+00 -1.34305869e+00 -9.33610820e-02
  1.55934560e+00  1.43058970e+00  1.71052975e+00 -8.72323168e-01
  5.54015174e-01 -5.39198892e-01  6.91636015e-01 -9.23372731e-02
 -1.85406026e+00  5.68733548e-01 -2.07786005e+00  2.34761591e+00
  2.70612492e+00 -6.51361534e-01 -4.97094232e-02  7.97895088e-02
  3.67922689e-01  5.91734185e-01 -1.65366989e+00 -1.03044598e+00
  8.40861059e-01  4.50025859e-01 -6.59839373e-01 -1.32392261e+00
  3.63846937e-01 -4.19085104e-01  9.84351723e-01  1.06559062e+00
  7.01654432e-01  3.20101183e-01  2.88878406e-01  8.82597763e-01
 -7.29965205e-01 -1.59121638e+00  5.95189264e-01  2.73333792e-01
  2.98112282e-01 -1.32636570e-01 -2.25107655e+00  2.89359255e+00
  2.74215521e+00 -5.10217963e-01  8.33351155e-01  8.89221266e-02
  2.53388613e-01  3.43292406e-01  1.07350284e+00 -6.69049478e-01
  7.15353657e-01  7.07661668e-01 -2.54871672e+00  1.46834047e+00
  6.57419414e-01 -5.82217264e-01  4.78801069e-02  5.12467821e-01
 -2.84319208e-01  5.25410237e-01 -2.05087613e+00  2.11908577e-01
  1.11050788e+00  7.51354335e-01  2.17867149e-01 -7.80517035e-01
  7.03579075e-02 -1.18630285e+00  1.20607091e-01 -1.74414611e-01
  4.99441864e-01  1.38884250e+00  8.50541999e-01 -8.31535884e-01
 -9.67498013e-01 -8.65728498e-01 -8.70449547e-01 -1.03853418e+00
  1.99151525e+00  1.29962918e+00 -5.92072608e-01  4.96593699e-02
  2.47800544e+00 -1.77869473e+00  3.95753126e-01  2.00327176e+00
  1.48823233e-01 -5.51341668e-01  1.26986793e+00  2.26074765e+00
 -1.82915778e-01  1.19345553e+00 -9.59331678e-01  2.63966565e-01
  6.39033565e-01 -4.51651249e-01 -5.29730590e-01  6.32917484e-01
  8.74996057e-01 -1.04936913e+00 -6.07351806e-01  4.18137791e-01
 -1.54177971e+00 -1.02519434e+00  3.25974888e-01  8.05144274e-01
  2.73738927e-01 -7.59400612e-02  1.68247812e+00  2.02187171e-01
 -5.27961923e-01 -2.07126435e+00  5.26165268e-01 -4.50283125e-01
 -3.48753544e-01 -1.05618716e-01 -8.61734772e-01  4.73135669e-01
 -1.38881365e-01  2.65213968e+00 -6.56247003e-01  2.79561960e-01
 -6.07715103e-01  7.29813612e-01 -8.87187550e-01  7.73272470e-02
  7.34163259e-02  4.16026163e-01 -1.87920004e+00  5.75458846e-01
  1.02062414e-01  1.18430372e+00 -7.94843047e-01 -1.25903051e-01
 -9.60346400e-01 -8.43913266e-01  6.28341716e-01  5.37214488e-01
 -1.40370995e-01  1.41641673e-01  3.11968613e-01  7.69085181e-01
  5.84285768e-01  1.78859265e+00 -2.46310433e-02  1.49028980e+00
 -3.21077148e-01  5.60806026e-01  2.70785683e-01  7.66668711e-01
  3.33484123e-02  1.76057232e+00 -2.03358571e+00  8.60236140e-01
  6.98168434e-01  7.68213245e-01  1.75179588e+00  1.32607009e+00
 -1.40490002e+00  1.12513637e+00 -4.41069259e-01  2.20224177e-01
  4.48111102e-01 -8.45090556e-01 -1.37042989e+00  1.55500372e-01
  1.44509897e-01 -5.75960961e-01 -9.12800301e-01  5.98687811e-03
 -3.00339645e-01 -5.70118923e-02  1.84803225e+00  5.83376533e-01
  1.33818543e+00 -6.21637492e-01  1.60465873e+00 -2.14711096e-02
  1.32880114e-01  6.15269053e-02  3.67316770e-01 -1.54763323e+00
  1.38630120e-03  6.81042873e-01  1.42840171e+00  4.52340501e-01
 -6.65440957e-01 -1.37844767e+00  3.31793637e-01 -1.80752966e+00
 -1.36474716e-01  5.34656449e-01  1.04580391e-01 -2.60702460e-01
 -1.89543380e+00 -4.62880106e-02  1.05877219e+00 -2.45661447e-01
 -4.14646956e-01  4.04397806e-01  7.03427772e-01  8.88822337e-01
 -8.70869818e-01 -4.85855138e-01  3.02742392e-01  9.99542731e-01
  1.40671527e+00 -6.04918308e-01  8.94173492e-01  1.32686563e+00
  2.86593065e-01 -2.17614103e-01 -9.73133515e-01  1.07981279e+00
 -7.02804471e-03  1.45810082e+00  1.78907668e+00 -1.33256431e+00
 -4.67876689e-01 -1.02980354e-01 -1.04640833e+00 -8.16730294e-01
  1.51798683e+00 -6.17795699e-01  2.62858128e-01 -1.90042722e+00
 -6.66032075e-01 -7.93734112e-01 -8.09270744e-01 -1.27865198e-01
 -1.35454325e-01 -1.47883394e+00 -4.92904573e-01  7.94947253e-01][-1.09221351e+00  2.08651464e+00  1.31665300e+00 -4.66413876e-01
 -2.13731218e+00 -2.15491617e+00 -7.50371008e-01 -7.28036491e-01
 -9.48938824e-01  1.75380092e+00  9.75203071e-01  9.13799721e-01
 -7.06304701e-01  8.45393917e-01 -1.43203878e-03  1.13288535e-01
  4.68100725e-01  2.84778212e+00 -1.44020869e+00 -1.69751569e-01
 -1.80531884e+00  6.08022032e-01  2.18203552e-01  2.17547043e+00
  5.77049493e-01 -1.47318056e+00 -1.24675744e+00  1.78606288e+00
 -2.30658251e+00  9.92134261e-01 -9.15632856e-01 -2.43897278e-01
  3.48120672e-02 -1.20670901e+00 -7.82278609e-01 -8.25585091e-02
  1.72933801e+00  6.58276152e-01 -7.93103468e-01 -1.75502690e-02
 -8.00560637e-01  1.61038533e-01 -1.03602927e+00 -3.40441324e-01
  1.77556598e+00 -1.25453666e+00  7.86215852e-01 -2.78880075e-01
  6.93456049e-01 -1.31956788e-01 -4.02886049e-02  3.36781159e-02
  1.40686786e+00  1.05533584e+00  2.11095650e-01  1.44639380e+00
  1.19229395e+00  1.11955157e+00  1.23112308e+00 -1.32317182e+00
  1.71518730e+00 -1.17357315e+00 -1.13522708e-01  7.04551646e-01
 -2.08699527e+00  7.66464556e-02  1.06367381e+00  2.30402574e-01
  8.00850913e-01 -5.18150794e-01 -1.54430876e+00  1.09807269e-01
 -1.19519069e+00 -2.89112260e-01 -8.64508669e-01  2.27022467e-01
 -8.24001347e-01 -4.30445962e-01  2.28141293e+00 -8.20571864e-03
 -1.91369574e-01  1.26051568e+00  4.98894509e-01  1.41000386e+00
  4.15301055e-01  3.91957736e-01 -2.22396504e-01  1.43540371e+00
  3.34722119e-01  1.87636562e-02  2.10073305e+00 -2.07478977e+00
 -6.26460014e-01  8.55082322e-01 -8.14339310e-01 -6.92897131e-01
  6.15313586e-01  6.98009600e-02  7.14195477e-01 -6.21046642e-01
  6.63072485e-03 -5.00597469e-01 -9.92777287e-01 -9.86820810e-01
  7.59064298e-01 -2.31260197e+00 -3.23173526e-01 -1.07391178e+00
  3.09866328e-01 -3.10434792e-01  6.35883050e-01  4.27389756e-01
 -1.81292069e+00  5.20387172e-01 -3.91445894e-01  1.23556360e-02
 -2.86327565e-01  4.89334162e-01  2.27565779e+00 -1.10541966e-01
  2.25477708e+00 -6.11964328e-01 -3.30991249e-01  1.24196358e+00
  1.62109864e-01  7.10566436e-01  3.67004222e-01  1.66673009e+00
 -1.36326501e+00 -9.82132713e-01  4.08619769e-01  2.77705299e+00
 -6.14567781e-01  5.54050439e-01  1.86902158e+00  9.90264018e-01
  2.30156111e+00 -1.59314752e+00 -1.10628412e+00 -1.99538477e+00
 -5.20461887e-01  2.72640840e-01 -8.41445099e-01  3.00688728e-01
  2.96138111e-01 -7.07438941e-01  5.00652338e-01 -6.29601800e-01
 -8.20655788e-01  1.09399281e+00  1.91047475e+00  9.32785078e-01
 -5.31507616e-01  5.54529766e-01  9.72545970e-01  5.30842807e-01
 -1.94930557e-01 -2.64768063e+00  7.17493611e-01  2.32715330e-02
  9.78933837e-02 -6.13398907e-01 -2.15084508e+00 -1.41027003e-01
  1.13590104e+00  7.16332288e-01 -5.74505153e-01  5.02101740e-02
 -3.73555497e-01 -2.01397829e+00  1.68239443e-01  1.48346341e+00
  1.90611926e+00 -2.17367227e-01  5.84377686e-01 -1.83784677e+00
 -1.19830474e+00  4.02655191e-01  4.84106124e-01 -1.53384352e+00
 -8.74171152e-01 -7.96323827e-01  7.43140158e-01 -2.59042076e-01
  4.17884113e-02  1.09924163e+00  5.34623055e-01 -1.01008856e+00
  6.72298818e-02 -1.07617688e+00  1.26054492e-01  1.17513889e+00
  8.67448889e-01  6.99060490e-01  4.74507419e-01  9.59074975e-01
  2.82233724e-01  7.59553930e-01  1.54724904e-01  5.32075316e-01
  2.54969952e-01  9.92710788e-01  1.06991674e+00 -5.31279790e-01
 -1.03330964e+00 -1.87094721e-01  1.89601571e+00  6.80776424e-01
 -2.31574729e+00  7.33671536e-01 -9.46280829e-01  9.81719174e-02
 -1.52506060e+00 -2.34513104e+00  1.70054985e+00  1.00426999e+00
  1.56557679e+00  6.15284978e-01 -1.46456753e+00  2.08249262e+00
 -2.80156222e+00 -1.28697185e-01 -6.53836298e-01 -6.93869008e-01
 -2.28739530e+00 -1.46686111e+00 -4.02087573e-01  1.41893132e+00
 -9.46419301e-01  4.91311802e-01  5.36785136e-01  9.38207598e-01
 -5.81286543e-01  1.19575602e+00 -1.13297396e+00  6.50963512e-01
 -7.11720358e-01 -7.71000125e-01 -5.99212522e-01 -1.54017513e+00
 -9.44260641e-01  3.42426154e-01  6.81438920e-01 -1.24991750e-01
  1.01572972e+00 -1.52814392e+00 -6.61025056e-02  7.31564937e-01
  8.42538624e-01  8.03017812e-04  2.24287466e+00  2.18727343e-01
 -1.14232329e+00  2.97722651e-01 -1.50098898e+00  1.02454951e+00][-3.22026530e-01 -4.17242873e-01  2.83283486e-01 -1.16927124e-01
 -2.02030661e+00 -2.24102266e+00 -3.28702658e-01  2.16680065e-01
  5.48388081e-01 -2.69218103e-01 -8.39024318e-01  1.06349723e-01
 -8.50801749e-01  2.09558326e-02 -1.53532355e+00 -3.31030869e-01
 -1.90040163e+00  1.85956421e+00 -4.67458752e-01  9.65317711e-01
 -4.69674994e-01 -3.34818067e-02  1.06215723e-01 -8.03833864e-01
 -4.72195530e-01 -3.88249797e-01  6.22519514e-01 -7.74414102e-01
  3.63965545e-01  6.52260476e-01 -7.29590437e-01  9.57832012e-02
  5.94511992e-01  5.47795120e-01  3.15049178e-01  1.58856217e+00
 -9.62152603e-01  1.99920556e+00 -9.98908523e-01 -6.56690595e-01
  6.36490718e-01  2.25837755e+00 -9.02690685e-01 -1.51556739e+00
  2.13737818e-02 -5.02794361e-01  1.98276364e+00  3.94150983e-01
 -6.98127656e-01  8.33506626e-01  7.11611678e-01 -1.51715126e+00
  2.81908709e+00  5.60013428e-01 -1.84587301e-02 -1.27852345e-01
  1.91798559e+00  3.39359549e-01  2.32295391e-01 -1.80383089e+00
 -6.36902735e-01 -1.67274417e+00  2.08856788e-01  5.33291990e-01
 -3.25303423e+00 -1.30797466e-01 -1.76031591e+00  4.97777802e-01
  4.10435319e-01 -1.12497024e+00  1.00147452e-02  3.01589102e-01
  2.34380099e-01  2.05200515e+00  3.50756701e-01 -1.33699760e+00
  6.33441829e-02  1.50729552e-01 -7.02793872e-02 -2.42681041e-01
  9.83634844e-01  1.96344410e+00  1.49944712e+00 -6.94323980e-01
 -6.50843200e-01  6.47849799e-01  3.00088222e-01  2.08847698e+00
  5.63321655e-01 -8.29616484e-01 -1.46715272e+00  2.08221912e-01
  1.75099507e+00 -7.93716302e-01  1.72081971e-02  1.75415486e-01
 -6.22033284e-01  1.07912923e+00  1.26385501e+00  4.36130935e-02
 -1.86225954e+00 -4.80382486e-01 -5.94831172e-02  8.75781410e-02
 -2.44460224e-02  1.21229949e-01 -7.16319085e-01 -3.74067778e-02
  7.80678210e-01 -6.56597122e-01  6.07064761e-01  5.57284119e-01
  9.97611508e-01 -2.96551703e-01 -1.87991624e+00  4.64719972e-01
  1.69461834e+00  1.57588635e+00  9.55906846e-01  1.73205086e+00
 -3.24548812e-01  9.47864656e-01 -6.03646023e-01 -4.76838784e-01
  4.61682436e-01 -3.17318725e-01 -9.02049852e-01  8.14128389e-01
  2.15341434e-01  1.43031520e+00 -1.32360011e+00 -4.20719815e-01
 -5.17254450e-01 -2.32677284e-01  7.21345700e-01 -1.15926345e+00
  1.07083317e+00 -4.98975553e-01  1.15825139e+00  1.50105535e+00
  1.84296179e+00 -1.01325919e+00 -3.76427665e-01  7.47621534e-01
  9.43633769e-01 -4.25561707e-01  8.05777945e-01  5.68531841e-02
 -5.51358292e-01 -6.04188418e-01  1.23496869e+00 -1.03110525e-01
 -3.68854466e-01  1.89256941e+00  1.87349238e-01 -1.23435415e+00
  1.05134282e-01 -2.21839461e-01 -3.39889592e-01  3.09657106e-01
 -2.26531123e+00  2.34963762e-01 -9.97210281e-01  5.30446938e-01
  5.70398842e-01 -2.68512486e+00  4.89547102e-01  6.41860138e-01
  2.33037563e-01 -7.60631755e-01  1.24365175e+00  8.50271095e-01
 -9.54135902e-01  1.33311252e-01  1.39589955e+00  1.14883261e+00
  1.08959712e+00 -1.40690449e-01  1.18391882e+00  1.55520159e+00
  2.04898474e+00  6.85934750e-01  4.40692643e-01  5.48059290e-01
 -8.52967367e-02  3.14523396e-02  1.89989352e-02 -4.99648746e-01
 -6.19625286e-03 -1.59635149e-01  4.50391026e-01 -1.20499051e-01
  3.85565248e-01  4.56092972e-01  2.83732344e-01  2.36560147e+00
  9.82683848e-01 -1.58229410e+00 -1.26858978e+00  9.43203325e-01
  1.09601647e+00 -2.96346890e-01  2.28370262e-01 -4.51925511e-02
 -1.69967967e-01  7.69551013e-01 -9.88517967e-01 -7.15845967e-01
  6.88356472e-01 -7.23002502e-01  3.22483188e-02  3.36368160e-01
 -2.00934679e+00  7.13107100e-01 -2.19631333e-03  1.89476506e+00
  2.49894343e+00 -1.53165075e+00  2.92352680e-02 -4.44056306e-01
 -1.22411942e-01 -1.09395008e+00 -1.12131370e+00 -1.95739059e+00
 -6.79315138e-01  4.77698004e-01  4.00153673e-01  2.71738624e+00
  1.44854348e+00 -1.04054030e+00 -1.57830129e-01  1.43828149e+00
  7.32107779e-01  2.26002169e-01 -1.10207773e+00 -1.29925873e-01
 -2.28577461e+00  1.41229617e+00  6.98800372e-01  6.29873269e-01
 -2.36097392e-01 -1.24838837e+00 -1.04576192e-01  6.95895745e-01
  1.57603932e+00 -4.41135693e-01 -1.50539717e+00  5.99686691e-01
  9.93568188e-01 -4.28642111e-02  6.42214276e-01  1.84703060e+00
 -3.70998975e-01  6.24767834e-01  4.93603235e-01  6.92093041e-01][ 2.45000452e-01  1.05035235e+00 -9.70393083e-02 -1.57581485e+00
  3.21017082e-01  3.90620799e-01 -8.60615675e-02 -3.76459060e-01
  2.75369214e-01 -1.46987631e+00  1.32687554e+00 -2.89416158e-01
 -2.90783590e-01 -3.39979970e-01 -1.40221004e+00  3.26382558e-01
  2.03411481e-01  9.86495257e-01  1.58883455e-01  2.47486881e-01
  1.92955371e+00 -2.51281048e-01  1.66416808e-01 -5.58107058e-01
 -3.60056082e-01 -3.62200271e-02 -1.48365447e+00 -2.36285089e-01
  5.32064007e-01  1.12236486e+00  5.91211691e-01  1.97029256e+00
  7.31092352e-01 -5.77928139e-01 -1.63702280e-01  1.00881285e+00
  1.79577571e+00  1.24721203e+00  6.26374141e-01  1.56832076e+00
  4.90524833e-01  4.64052012e-01  1.00089279e+00  1.47800733e-01
 -3.86945506e-01 -1.33063766e+00 -8.03470852e-01  2.63040488e-01
 -1.67858489e-01  1.80645755e+00 -8.57691839e-01 -2.15532506e+00
 -1.30672466e+00 -6.64313663e-01 -9.79697554e-01 -4.91582948e-01
  2.20540233e-01 -2.86284922e-01 -4.46445391e-01  2.12338760e-01
 -3.97411260e-01  7.06335218e-01  6.54165952e-02 -2.27331349e-01
  4.89051046e-01 -8.67503179e-01 -4.65040611e-01 -1.02274277e+00
 -3.70077077e-01 -6.56873886e-01 -1.06500069e-01 -1.07885894e+00
 -1.15682959e+00  1.63845119e+00  2.23876297e+00  1.56393772e+00
  1.40801603e-01 -2.01754961e+00  9.19058572e-01 -4.41343422e-02
 -4.16811316e-01  5.22126382e-01  5.61341287e-01  1.56243179e+00
  2.08882828e+00  3.30395606e-01 -6.30348885e-01  1.94241838e-01
 -1.32383070e+00 -3.66098384e-01 -1.06112985e+00  9.38927120e-01
  1.27464356e+00 -2.51977911e-01  4.88770020e-01  3.90650111e-01
  7.93533354e-01 -3.89722802e-02  1.08584053e+00 -5.25424768e-01
  1.05073670e+00  1.22260028e+00 -3.33764831e-02  4.53017890e-01
  9.27863341e-02  5.98284997e-01  6.76389686e-01  2.60471721e-01
 -2.24019375e-01  8.25004581e-01  4.62313671e-01  2.38276612e+00
 -1.07700858e+00  1.94634904e+00  4.19160613e-01  8.05294991e-01
 -6.14907672e-01 -4.01758808e-01  3.63118206e-01  3.11515566e-02
 -1.37956895e+00  8.05263820e-02  8.86416315e-02 -4.57644810e-01
  1.03111794e+00  1.22299645e+00 -8.14204482e-01 -3.01462603e-01
 -5.55928019e-01  1.79861197e-01  1.03030795e+00  4.43613142e-01
 -1.64994617e-01 -5.06946640e-01  1.52492944e+00  1.30618842e+00
  4.94036849e-01 -1.20967852e+00  9.86077968e-01  1.47101224e-01
 -9.74136900e-01  1.41398366e+00  5.41875154e-01 -1.34188522e+00
 -2.51552059e-01 -1.44955121e-01 -5.30612735e-01  6.29411112e-01
  1.05134069e+00 -3.65470802e-01  2.03260523e+00  2.67639248e-01
  1.81801178e+00  4.80225917e-01  1.03928825e+00  1.45787582e+00
 -5.76148442e-01  1.11740953e+00 -8.21369903e-01 -3.52555075e-02
  1.23906332e-01  8.57983530e-01 -1.73093998e+00  1.85582090e-01
 -1.97198852e-02 -1.62149201e+00 -1.72920435e+00 -2.74889230e-01
 -1.50111146e+00  3.03394554e-01 -1.07824983e+00 -4.38778066e-01
 -6.07886365e-01  2.38707213e-01  4.14893158e-01 -2.09565785e+00
 -2.10561639e+00  7.88022576e-01 -1.03111252e+00  4.41733512e-01
  3.50266819e-01  1.84747603e-01  5.13945516e-02  4.26512389e-01
 -1.15949254e+00  1.30235822e-01  4.25972643e-01  7.94729857e-01
  6.80194615e-01 -1.81870676e-01  1.99017487e-01  2.08783322e-01
 -7.13199076e-01  1.39409668e-01  2.29994233e-01 -3.82562425e-01
  1.34935036e-01  1.17048875e+00 -5.69884901e-01  2.36061259e+00
  1.63634355e-01  6.31239363e-01  1.00404698e+00  3.37558639e-01
 -6.19752433e-01 -1.65302838e-01  6.86348481e-01  4.78877970e-01
 -2.71993809e+00  1.70091214e+00 -2.94362024e-01 -6.32690607e-01
  5.90650917e-01 -7.46269329e-01  4.84516291e-01 -8.91281332e-01
 -7.50589595e-02 -8.98271872e-03  9.59093985e-01  6.62567652e-01
 -2.94168007e-01 -2.09633340e+00 -7.86384389e-01  4.30062514e-01
  7.48611211e-01 -1.03539731e+00  1.41397014e-01 -2.66128174e-01
  1.47357600e+00  1.23511413e+00  4.22511598e-01 -1.96218611e+00
 -2.14057526e-01 -4.18429386e-01  5.50247319e-02 -1.44074876e+00
  1.18387014e+00  1.56574023e+00 -2.18949168e-01 -2.50793187e-01
 -4.04506324e-01 -2.31206145e-03  6.00634440e-01  1.53457970e+00
  5.04470301e-02  4.43151927e-03  1.40604824e+00 -1.16934757e+00
  9.99194860e-01  1.00626563e+00  6.56830863e-01 -6.17617252e-01
  6.20002161e-01  5.89806321e-01  1.74031001e+00 -1.69439576e-01][ 0.66827795 -1.10841843  0.25495475 -0.0292046  -0.59311121 -0.32382228
  1.91938228  0.49688371  0.1186061  -1.103974   -0.49703129  0.31294076
  0.22616507  1.46310899  0.02526386 -0.13879159 -0.01699634  0.09704245
 -0.06184304  0.16765417  0.65390734  1.30242841 -0.41016938 -1.33108414
  0.61735017  1.56918728 -0.08208703  0.68188068 -0.72577433  0.20439973
 -0.44320666 -0.31608081 -0.61136869 -0.40694634 -0.36914814  0.18065712
  0.13507455  0.96862199 -0.09431686 -0.94762805 -0.23429236 -1.09139009
  0.99717624  1.08648078 -1.29902635 -1.30426623  1.1825558  -0.42952108
  0.08241871 -2.13951276  1.24686787  1.80531186  0.31688229 -0.97156386
  1.64676405  0.14639728 -0.2424275   2.02399586 -0.91566222  0.64647735
 -1.19992134  0.78379688 -0.53790764 -1.21708104  2.01285666  0.09853347
 -0.94257139 -1.52528498 -0.75117396  1.15316537 -0.0928149  -1.11153676
  1.55335713 -1.02756459 -0.07171323  0.44552528 -0.1218591   0.19084898
 -2.27215913 -2.91449892  0.39093519 -1.16573849  0.81185647 -0.96284878
 -1.5679603  -0.15194739 -0.43238091 -0.03576256  1.51281994 -0.77599452
 -0.2717688   1.01964602 -0.43524364 -1.01545653  0.18591003  0.56315305
 -2.41897342 -0.71681998  0.57504244  0.48073615  0.37011284 -0.16244791
 -1.30250786 -0.19211541  1.66073875  0.8687124  -2.01516818 -0.99690494
 -1.03425079  0.87952105  0.71250483  1.77218718  1.24612304 -1.16362557
  0.06157423 -0.57646002 -1.5929365   0.71568559  0.9248516  -0.36614691
  1.52162869  1.29795468 -0.2535141  -0.38246272  0.97307106  1.06971394
 -0.54441474 -0.06307104  0.89381886  1.83791599  0.58467853  1.60454624
  0.56661307 -0.77598779  1.08488869  2.24198946 -0.92475528  1.1288899
 -1.12879127 -0.72473762  0.62357121  1.43796646  0.27414184 -0.50446901
  1.106671    0.6933041   0.36737233 -1.54074476  0.11761961 -0.80578218
 -1.56928322 -0.29978812  1.9262718   0.81781268  0.04050351  0.05899342
 -0.04788036  0.39856903 -0.26685917 -1.06403232 -0.62244357  0.62962473
  0.4825734  -1.07294884 -0.12052561  0.59379935 -0.79654648  1.63305817
 -0.89111018 -0.36462932  1.68192066 -0.40813368 -1.47825328 -0.81058849
 -0.70570395  0.90543379  0.28875545 -0.14549416 -0.07407558  0.17425317
  1.33282954 -0.38586642 -0.78207074 -0.2846416  -0.39407887  0.30738252
 -0.38065856 -0.31902859 -0.70778237 -0.74438717 -0.47869402  0.26776188
  0.63766566  0.261073   -1.46243015  1.16551096  2.85442408 -0.29413228
 -1.04289739  0.22906772  1.16568558 -0.47485435  0.7142284   0.03185318
  1.30973397  0.54281273  0.37179529 -1.57958871 -0.39590562  0.35412547
  2.26233508  0.82368223  0.49477477 -1.1310962  -0.20180471 -2.03995191
 -1.54340573 -1.04982058 -0.84914949 -0.49471278 -1.12743023  0.09131194
 -1.22154224  0.68518267 -0.82404331 -0.19681032 -0.29067954 -0.88726411
  0.5176341  -0.79107429  0.37130931 -0.58168038 -0.00812333 -0.57770595
  1.63484415  0.89524421  2.73084531 -1.37464658  1.76787814  0.41025331
  0.62293063  0.01105678  0.07186046 -0.30250176  0.94336568 -0.01442299
  0.80305006  0.32691135  1.91095756  0.36507609  1.20871603 -0.32322162
 -0.68352169  0.32261208 -0.11411049 -0.12017666][-3.09574201e-01 -4.35526408e-01  1.80870668e+00 -8.11745974e-01
  2.53080465e-01 -2.09310107e+00  8.41545883e-01  5.14486490e-01
  1.00738323e+00 -6.61814195e-01 -1.55664643e+00 -3.25437677e-01
  2.40277677e+00 -1.22404447e-01  3.63628056e-01 -2.82560145e-01
  8.66375171e-01 -9.90076644e-01  1.04197941e-01  2.63517418e-01
  1.27593114e+00  1.70876025e+00 -2.24154398e+00 -2.38962934e-01
 -1.52200976e+00 -7.33373408e-01  6.67023864e-01  1.15507934e+00
  1.23727869e+00 -1.88092512e+00 -1.34403007e+00 -1.28698511e+00
 -7.83003666e-01 -2.90707603e-02  4.71154427e-01 -5.46276085e-02
 -4.03385343e-01  1.24534512e+00 -9.76821800e-01 -2.79234932e-01
 -1.19214242e+00 -5.45692944e-01  6.24117122e-01 -1.84211701e+00
 -6.65326721e-01 -6.14662155e-01 -4.26808376e-01 -8.98651368e-03
 -4.86801622e-01 -6.50899411e-01 -9.79828827e-02 -1.67825865e-01
 -1.60434235e+00 -1.77919972e+00 -5.72561041e-01  6.99946042e-01
 -1.96706258e-01 -7.46451937e-01  9.37748133e-01 -2.62540124e+00
  7.46164834e-01  6.74110015e-01  1.01426750e+00 -8.07142329e-02
 -2.21647735e-01 -6.46359111e-01  1.37408466e+00 -9.12910528e-01
  4.79711177e-01  7.42366754e-01  2.31547893e-01 -9.06963739e-01
  2.48194524e+00  2.26619461e-01 -1.37916236e-01 -5.41549242e-01
 -8.04591999e-01  9.30627385e-01  1.54306521e+00  1.38178690e+00
 -1.66668758e-01 -1.65858287e+00 -5.54349158e-01  5.06683472e-01
  1.52475812e-01 -3.72381137e-01 -1.11704604e+00 -4.27814730e-01
  9.39183809e-01 -9.20709912e-01 -4.42637342e-01  6.80653690e-01
 -1.03617381e+00 -1.75111321e+00  5.34143075e-01  6.99832699e-01
  2.12831070e-01 -1.44312074e+00 -1.25630682e-01  1.57635630e+00
 -1.43653836e+00  2.77326052e-01 -5.64612005e-01  2.10231621e-01
 -1.21281210e+00 -1.68370093e+00  5.48939015e-01  1.33089616e-01
  2.33366109e-01 -1.48440708e+00  4.31884449e-01  1.26785169e+00
 -5.40386994e-01  3.36490657e-01 -5.00478966e-01  8.90586317e-01
 -8.26497798e-01 -1.25212442e-01  8.56918745e-01  4.61829429e-01
 -9.49347150e-01 -3.88441406e-02  2.37239654e+00 -9.89369525e-02
  2.26785906e+00 -4.03947151e-01 -5.93694952e-01  3.26675851e-01
  1.18011429e+00 -9.27327063e-01 -2.72712666e-01  1.83277269e+00
 -2.47207754e-01  1.21029008e+00  2.07052553e+00 -1.98933489e+00
  9.15268798e-02 -2.37639956e+00 -1.81821977e+00 -2.32026543e-01
  1.25681147e+00 -6.22313445e-01  1.48988742e+00 -7.53903473e-02
  2.87330629e-01 -1.02105108e-02  1.15181107e+00 -8.04021256e-02
  1.26767465e+00 -8.66220254e-01 -8.60330705e-01 -1.73846224e-01
 -1.14083208e+00 -1.12716988e+00  5.84292915e-01  2.11545495e-01
 -1.03018525e+00  1.18575847e+00 -5.65869922e-01  2.49152307e-01
 -1.17878370e+00 -4.73499831e-01  1.06433998e+00  1.26750531e+00
 -1.07830085e+00 -4.96034729e-01 -4.63168264e-01 -6.04629560e-01
  8.20688380e-01 -3.80906511e-01  1.31615704e+00 -1.63400030e+00
  4.77677428e-01  9.79415084e-01 -8.13915860e-01 -3.13444256e-01
 -1.14168096e+00 -7.82452913e-01 -1.01500282e+00  1.07154926e+00
 -8.51865942e-01  1.72858179e+00  1.17127922e+00 -6.14941162e-01
 -1.83231076e-01 -1.33505576e+00 -1.74721003e+00  8.16064773e-01
  4.76230339e-01  2.35078255e-01  1.42869275e+00  4.34120702e-02
 -1.26894451e-01  3.45981097e-02  1.18481987e+00 -1.30952433e+00
 -1.86802001e-01  1.96932634e+00  1.50065355e-01 -5.24064878e-01
  1.78466600e+00  3.19078205e-02  1.12128794e+00 -3.65737967e-01
  7.79844171e-01 -4.12654489e-01  5.21170379e-01  9.43156623e-01
 -1.21877315e+00 -6.66177017e-01  4.72427176e-01  6.61290974e-01
 -3.62022614e-01  8.76808066e-01  1.69405131e+00 -3.76359893e-01
 -9.19974652e-01  3.97111702e-01 -7.20410618e-02  2.05317017e-01
  1.13206494e+00 -3.00081319e-01  9.45866842e-01  9.68573667e-01
 -5.77779802e-01 -1.63284319e+00 -1.74307583e+00  1.40798267e+00
  3.13202973e+00  4.63812767e-01  5.54494661e-01  7.99216144e-01
 -2.53592583e-01  8.76906344e-02 -6.60951661e-01  5.49570458e-01
  7.71933334e-01  6.91921400e-01 -1.11000888e+00  1.33205138e+00
  6.48789640e-01 -6.04393766e-04  1.28801695e-01 -1.17816485e+00
 -7.41041699e-02 -4.62857780e-02  1.25691708e+00  5.60670887e-02
 -1.25731657e-01  4.93797131e-02  5.04672085e-02 -6.02569636e-01
  4.34325522e-01 -7.51531335e-01 -3.74506511e-01 -1.57534699e+00][ 3.04612958e-01  7.75103580e-02 -1.00605576e+00 -4.44067733e-01
  1.16114200e+00 -2.69090229e-01 -1.66305128e+00  1.63612991e+00
  1.32005735e+00 -8.90352277e-02 -5.00469024e-01 -9.35624936e-01
 -1.19471877e-01 -8.78098072e-02 -1.47802316e+00  1.25240212e-01
  1.95832337e-01  8.86755052e-01  1.39235035e-02 -2.09438067e+00
 -3.85521477e-01 -1.40897277e+00  7.64414651e-02 -4.12496646e-01
  4.82789983e-01  6.66029714e-01  1.04909849e-01 -1.56350512e+00
  9.58642852e-01 -1.54197230e+00 -3.18017279e-01 -1.42276984e+00
 -1.69540837e-01  1.46157756e+00  7.49986189e-01  3.38231456e-01
 -3.15170900e-01  4.71437626e-01 -1.74528166e+00 -1.27828664e+00
  7.56302879e-01 -4.29156024e-01  1.28218524e+00 -1.32798510e+00
  1.38503178e+00  2.95383342e-01  6.89091204e-01  3.30767300e-01
  3.01275457e+00 -1.09858296e+00 -7.72162756e-01 -7.13758810e-01
  1.71423673e+00  4.84829641e-01  4.07778150e-02 -1.67626480e+00
  8.88368501e-01  9.56175736e-01  1.84819184e+00 -2.84028935e-01
 -7.94381362e-01  1.11296430e-01 -2.84627659e-01 -1.17070196e+00
  1.12431875e+00  1.97383776e+00  7.83604352e-01 -2.43239992e-01
 -7.28064189e-01  3.33010740e-01 -1.10865227e+00  6.66598272e-01
 -2.35344283e-01 -6.95450826e-01  3.41771508e-01 -3.31965270e-02
 -3.99960002e-01  6.81223491e-01 -6.17707191e-01 -9.81111015e-01
 -1.67129382e+00  2.82178888e+00 -1.07868335e+00  4.20403378e-01
  1.20280345e+00 -1.83296934e+00 -4.88814579e-01  1.15476607e+00
 -2.85018288e-01  1.16275045e+00 -1.35194148e-01  2.93766471e-01
  1.44545669e+00 -1.24356201e+00 -1.81301771e+00  1.03706036e+00
  2.09592506e+00 -2.00185693e-01  1.41157306e-01 -5.88576062e-01
  7.87687723e-01  6.61249296e-01  5.92645624e-01 -1.20211538e+00
 -4.59115438e-01  2.62058693e-01  1.39095719e+00 -9.48186545e-01
 -1.93170445e+00  7.16088292e-01  7.04143539e-01 -2.68045925e-01
 -1.06846000e+00 -2.84493759e+00 -5.83392677e-02  3.16529961e-01
 -6.83713330e-01 -2.12507622e-01 -1.16814212e+00 -4.07013129e-01
 -3.33856121e-01 -9.30115387e-01 -4.85400277e-01 -8.60614744e-01
  8.84322907e-01  4.91177283e-01 -1.01789911e+00 -1.35240239e+00
  8.77927609e-01  7.28806976e-01 -3.64791035e-01 -1.19922531e+00
 -1.46645292e+00 -6.89746089e-01 -9.74619616e-02 -4.53751512e-01
  6.44544779e-01 -5.10603034e-01 -3.57764568e-01  2.19295901e+00
 -5.64872296e-01  2.94419069e-01 -8.05407700e-01  1.02762733e+00
 -9.13585305e-01  6.24414207e-03  4.52529572e-02  1.35997427e+00
 -1.08535841e+00 -1.72503158e-01 -1.41363136e+00  1.29097590e+00
  1.09735469e+00  7.63920788e-01 -1.15467542e+00  1.25340420e+00
  3.62888173e-01  1.59302036e+00  2.16767808e-01  1.10020924e+00
 -2.58173882e-01  3.68898373e-01 -1.77926066e-01 -7.22545391e-01
  7.17868666e-01  8.23981849e-01 -2.98483614e+00 -2.40018196e+00
  1.79760353e+00  1.50895477e+00  1.87667739e-01  3.64112837e-03
  1.24808775e+00 -6.86107694e-02  1.64459242e+00  1.03708610e+00
  7.71459763e-01 -5.30429871e-01  7.79503019e-01 -1.14897608e+00
  7.14515644e-01 -4.50097559e-02 -1.19185954e+00 -1.16892799e+00
  1.43280240e-01 -3.66174649e-01  5.02185670e-01  2.75823846e-01
 -9.56062375e-01 -1.53885818e-01  6.56278975e-01  2.40488460e-01
 -8.09845426e-02  1.03572201e+00  1.17968205e+00  8.19973400e-01
 -1.14329432e+00 -2.56974921e-01  3.95559582e-01 -1.76182418e+00
  4.79414016e-01 -2.98936045e-01  1.63894910e+00  6.05220430e-01
  1.21477379e-01  4.35964951e-01 -6.32602106e-01  7.72557901e-01
  1.85691531e+00  2.00213202e+00  1.37058264e-01 -4.46176344e-01
  1.40941194e+00  4.80179809e-04  1.07944819e-01 -7.38346595e-01
  1.23227666e+00 -2.17373330e+00 -2.02100734e+00 -6.51175818e-01
 -1.40699751e-01 -9.33275533e-01 -8.23021337e-01  4.28549781e-01
  1.70970086e+00 -1.55552579e+00  5.91373624e-01  3.61202782e-01
  1.34798559e+00 -9.77063846e-01 -1.06996899e+00 -6.98523737e-01
 -8.37309391e-01 -3.01493740e-01  6.82363979e-01 -4.98541884e-01
 -4.60614596e-01  1.20713695e+00 -1.28293992e+00 -2.80183476e-01
 -7.85465659e-01 -1.74072853e+00 -1.94638638e-01 -5.20514809e-01
 -2.32329772e-01 -2.03878451e-03 -1.45051648e+00 -3.19301325e-01
 -6.87211240e-01 -7.85430859e-01  2.50748237e-01 -1.22727126e+00
 -5.36179740e-01 -7.36697231e-01  3.76646790e-02  2.03882788e+00][-0.31941834  0.4726066   0.0135325  -1.24175928 -1.07993859  0.9279398
 -0.2137671  -0.79590339  0.15290506 -1.03731266  0.32671653 -0.33275125
  0.07411321 -1.69951412  0.20165643  1.48566298  1.16176794  0.09436962
 -0.52629215 -0.35975233 -1.05166284  0.17048899 -1.22071793 -1.18753709
 -0.14399362  0.51992732  0.65844959 -0.04546665  0.50761084  0.96912503
 -0.63370867 -0.40208001 -0.94815725 -0.462783    1.08402675 -1.27147841
  2.02531183 -1.4063359   0.28105214  1.11226372  1.2628252  -0.01137183
  1.72662911 -0.03767709  1.49708126  0.63230761  0.7465446  -0.22561073
  0.38881403  0.70729391  0.00770072 -1.71939187 -0.25919475 -0.18408271
 -0.68414138  2.61400766 -0.33606125 -1.59137053  0.07143063 -1.13276785
 -0.03120002  0.37872466 -1.66114252 -1.63351715  0.30882926  1.22773598
 -0.14717707 -1.01367978  0.42237565 -0.89930548 -0.72101359  1.65227919
  0.01011814  0.14742567  0.44639832  0.33787784 -0.6026206   0.62967143
 -0.61655811  0.64179452 -1.15841604  0.29039948 -0.68236625  1.68141466
 -1.89839881 -0.32346452 -0.09042351  1.09160439  0.53513736  0.53401775
 -2.09133357  1.04732309  1.12354052  1.16181729  0.55710824 -0.67079916
 -0.49142917 -0.93546841  0.20190623  1.04297341  0.26069207 -0.14967919
  0.6685211   1.96933315 -0.57044509  0.24165944  0.03654428 -2.28453454
  1.5353891   1.2914602   0.45132365  0.24765975  0.34442933  0.04896555
 -0.08887207 -1.00159787  0.274637   -0.45120829  0.10487568  1.38958819
 -0.71760416 -0.11181366 -1.59370261  0.42000523  0.2042133  -0.36495499
 -0.72267031  1.36463783  0.0553385  -1.35465039  0.13653605 -0.1993517
  0.56467531 -0.02945575  0.32804042 -0.64789534  0.63031063  0.84336865
  2.23348637 -1.86708126 -0.58943757  0.15399721 -0.88127588  0.33831015
 -0.03423053 -1.27813904  0.03718023 -1.85455121 -0.18154515 -0.8948889
  0.56287068 -1.5902788   1.83605977  0.40195136 -0.19653567  0.54953218
  1.48779702  0.08159118  0.03114009 -0.05295213 -0.26555661 -0.91621647
 -0.3475369   0.1555508   0.02350619  0.00821784 -0.83578324 -0.86950152
  0.91129305 -0.50861749 -2.41020213  0.2617543  -0.81599229  1.23258263
  0.15427111  0.75470076 -0.13581274 -1.729948   -1.77696064 -0.59034967
  1.12945263  0.60595137 -0.83384791 -1.96947272  0.73713707  0.46028919
 -0.82514748  0.7040039   2.01486115 -1.19847952  0.55809389  0.11307547
  0.48732956 -2.17040081  1.62799651 -1.44201345  0.59912619 -0.04623981
 -0.01033134  1.87049652 -1.65675443 -0.04671506 -0.52703279 -1.29154792
 -0.92162831 -1.05363166 -0.34499572 -1.41925419 -0.40688601 -1.50622111
 -0.78724834  0.60559415  0.26617535 -0.66964332 -0.11588265 -1.05067022
  0.85099684  0.11335953 -0.08502189  1.23155806  0.14978887  0.18183083
  0.58573085 -1.0371735   0.90464875  1.2998638  -0.51944996 -0.10737825
 -0.36789953 -0.09536129  0.63344087 -0.47269434 -1.39894317 -0.11618216
 -1.00124013  0.84913124 -0.20777909 -1.016756    0.53355982 -1.83238053
 -1.06351728 -0.64159098 -0.73551185  0.68486234 -0.56561115 -0.17124384
  0.405313    0.3388232  -1.8893796  -0.11975622  1.09233589  0.94429292
 -0.3042366   0.38159847  1.32281542 -0.46276177][-0.09829177 -1.52968789  0.49925794  1.34028825 -0.03624427 -1.424054
 -0.48887924 -1.48778641  0.41421166  0.33954562 -0.42152724  1.46492454
  0.58922486 -1.53537066 -1.89656256  0.60360656  0.67501547 -1.33359545
 -0.79294453 -2.05599617  1.8787782  -1.3656702  -0.06086067 -0.74810588
 -0.20686524  0.26189523 -1.67833553 -3.19061635  0.51755429 -1.42110582
 -0.49267758  0.64557925 -3.2606151   0.59070591 -0.06689686  1.40337345
 -0.08376728 -0.18828879  0.32295839  1.75598713  0.60076231  0.32777006
  0.23306975 -1.42097762 -1.08723642  1.29292893  0.14055975 -1.36856565
 -0.15681375 -0.79304639 -0.30333724  1.06070531 -0.78510248 -0.46243788
  0.00572091 -0.15289456 -1.00152748  0.1325309   0.38120138 -0.31567569
  2.54002018 -1.53614209 -0.5020989  -0.43306912  2.11853243 -0.79779728
 -0.33544516  1.72739974 -0.6071551  -0.17154471 -2.2735512   1.78012936
 -0.71417218 -0.1636311   0.43848928 -1.23818534  0.22465131  0.709015
 -1.83453698  0.9040671   0.02584989 -1.12351826  0.27319323  0.08546966
 -0.68160756  0.56324312 -0.71898169  0.60406741  0.85335905  0.51679251
 -0.20573844 -0.02673823 -0.5241647   0.2047983  -0.33206388 -0.21606178
  0.06492901  0.07201017  0.76970225 -0.80133978 -2.69891898  0.28628856
 -0.68036953 -0.68754923 -0.21063363 -0.34313986  0.95757045  0.22460459
 -0.47714422 -0.69121182 -0.78873123  0.26418463 -2.85106954  0.82312342
 -0.27474362 -0.68810141  1.12008084  0.25209284  0.78247217 -0.60308098
  1.24875227 -0.24140985 -0.11600038  0.79139652 -0.27327447 -1.6863542
  0.27188734 -0.69383461 -0.05573155  2.30487645 -1.08069589 -0.08681913
 -1.22105216 -0.87388533 -2.40841009  1.075473    0.50772654  0.847942
  2.53823281 -0.10460872 -1.33889943 -0.48941875  0.28013129  0.16055943
  0.75432716 -1.36114352  1.01352871  0.89595644 -0.50477479 -0.2916773
 -0.44855345  1.72578304 -0.39314718  0.16266847 -1.29961309  0.9474791
  0.47428092 -0.05502546 -0.1876132  -0.78009511 -0.44820993 -0.23042106
  0.51860846  1.74229438 -0.07311341 -0.96050532 -0.86378669  0.65540443
  1.36007428  1.77915516  1.82884973 -0.35349182  0.17275436 -0.46144982
 -0.30400624 -0.25885771  0.31470753  0.65898122 -0.56717612  0.1747034
 -0.1810518  -0.88391322 -1.41112353 -0.16598203  0.22155917  0.88723738
  0.97767406  0.59616962  1.11893055  0.2830798  -1.29814129 -0.11777665
  0.14803621  0.04398052  1.12288719 -0.5555234   0.23281038  2.01667507
  0.18430061 -0.19340159  1.41735454 -0.36980626 -1.49250124  0.54822247
  0.54405363 -0.74608409 -0.23915255 -0.32851101 -0.73771417 -0.38891344
  0.01631494 -1.69895186  0.35234661  0.04502641  1.81803768 -0.71405839
 -0.27521459 -0.55087095 -1.30011005 -1.0779128   0.27806669  0.04642415
  0.83772844 -0.48673508 -1.2206688   0.31888389  0.06499803 -0.64493561
  0.41722419 -0.53915854 -1.46165786  0.61703746 -1.22043534  0.45266038
 -0.69738464  0.72369194  0.92735683 -1.13040548 -0.07208956  0.25796766
  2.33814308 -1.14141636  2.09581941  0.82318489 -0.81629265  1.42436539
 -1.44585088  1.12470319 -1.63947552  0.24517883  1.05897416 -1.14445818
 -0.147177   -1.95176055  0.21272915  0.10822446][ 0.13130697 -1.36381382  0.23921477  1.6766742   0.69551528  0.80922869
  0.73784763  0.72987685 -0.1195175   1.00601802 -1.16042047 -0.13228129
 -0.7826824  -0.89839832 -0.69981641  0.48452858  0.67120571  1.56118477
  0.15801761  0.30182753 -0.46297576  0.2171394   1.60236826  0.03968618
 -0.01280611 -1.87198718 -0.46090325 -1.83461454  0.39634688 -1.54585201
  1.50344154 -0.3437898  -1.61839719 -0.98019468 -1.53190565  0.4665654
  0.17215372  0.14023998 -0.45402371  1.02062529  0.31278046 -1.05632408
 -0.67328735  1.43489705 -1.62204078 -0.74112646  1.00241437 -1.31476667
  0.11020856 -0.49891923 -2.19923004 -0.85316028 -0.4736984   0.25590813
 -0.66138024 -0.48922129 -1.04596348  0.59731154  0.62585524 -0.0356989
  0.63174632  1.09340409 -0.44169335  0.7462591  -0.36047774  0.53373037
  0.91358191  0.20469389 -0.03654635 -0.90187537 -1.7962205   1.33176878
  0.38537978 -0.53658164  0.7114666  -1.00916021 -0.6083779   0.82777836
 -2.70833931  0.29624993  0.16890333  1.36745031  0.27146807 -1.28551588
  1.28346343  0.55160258  1.2269577   2.06616976 -1.01997888  0.54992477
 -0.42620367 -0.56251421  0.28303645  0.86268544 -1.29508775  1.0514028
  0.60483895 -1.50111443 -0.05169765 -1.30986686 -0.92477078 -1.01673092
 -0.10242164  0.29918563 -0.46060775  0.9955542  -0.83369919  0.58422793
  0.70951665  1.77684109 -0.46190097  1.66795143  1.36157647 -0.64706426
 -0.15485799  0.45937425 -0.0424349   0.54223464  0.3595162  -0.80667012
  1.17926952  0.11763107 -0.22176971 -0.14652386  0.93894071  0.57469522
  1.27548401  0.6149757   0.83385576  0.2798454  -1.02298932  0.1329572
 -0.74314699  0.73017527  1.25420073 -0.1994571   0.19675098 -0.56529144
 -1.4143802   0.25696424 -0.92662112 -2.5435778   0.02527112 -0.27467775
  1.76943438 -0.52412959  0.76041746  0.20083281 -1.03826467  0.63099415
 -0.16088246 -0.79579425  0.28660043  0.42430207  0.39023403  2.00436632
  0.73534545 -0.2813525  -1.40443904 -0.52956636  0.94643372  1.11720874
  1.91557212  2.2386638   0.53635947  0.5544523  -0.35484752  0.39855285
  0.61589242 -0.67454767 -1.64746091  0.46718384  2.03021153 -0.23997256
  0.95019924  0.54468148  1.42869219 -1.1192733  -2.156295    1.22293951
  1.61822637 -1.46284352 -0.62010173 -0.49441713 -1.02252329 -2.47968028
 -0.93603964 -1.11200937  0.29505334  2.13425867  1.79621331 -0.17345357
 -0.42283741  0.18290883  0.02538841 -0.46426499  0.04126522  1.73801126
 -0.8939541  -0.58776342  0.45774239  0.16849068 -0.49438785 -0.75265149
 -0.01269967 -0.46965111 -1.93185889  1.69364167 -0.67833189  0.872992
 -0.64363982 -1.55513697  1.46886039 -0.61569444  0.42228686  0.86077111
  0.62697406  0.56177533 -1.29334107  2.05487448  0.48465899 -0.57053095
 -0.24528597  0.02129919 -1.49180964 -0.46780261  0.07416543 -0.15333923
  0.95361607 -0.54504347 -0.89257103  0.62246268 -0.72692437  0.80553017
  0.94078981 -0.23625399 -0.62700839  0.23518918 -0.10299096 -0.95551646
 -0.10163811 -0.21473154 -0.32261313  0.12720527  2.31282756 -1.33597857
 -0.54038302 -0.51782947  1.35354744  0.2271784   0.50768256  1.17782348
 -1.85235311  2.35292126  1.06823839 -1.89378205][ 2.04561602e+00  1.47699958e-01 -6.32191849e-01  5.46812782e-01
  1.45595192e+00  9.67238149e-01  3.09571957e-01 -1.64659366e-01
  1.24908895e+00 -1.39987925e+00 -2.15870782e-01  3.54617433e-01
 -2.68588921e-01 -7.78485179e-01 -8.77007342e-01 -9.45402883e-01
 -4.87841200e-01 -2.35099196e-01  3.88257913e-01 -1.12526218e+00
 -2.62273330e+00 -2.26366756e-01  1.00797754e+00  4.08645933e-02
 -7.39611289e-01 -5.45536662e-01 -9.63287995e-01  1.05889254e+00
  1.28341525e+00  6.24436298e-01  2.07634365e+00 -9.99483962e-01
  8.79404863e-01  1.61033087e-01 -8.30651374e-01  8.91949714e-01
  7.42548821e-01 -1.03800006e+00  6.06376932e-01 -1.32781251e+00
  2.84470438e-01 -1.65818429e-01  8.19344187e-01 -4.64144618e-01
  3.92811394e-01 -1.47263885e+00 -3.31306118e-01 -1.28848657e+00
 -4.16475701e-01 -1.11816225e-01  3.64444472e-01 -5.34327997e-01
  1.30032111e+00 -3.73686701e-01 -1.06813451e+00  1.54869745e+00
  6.45127796e-01 -7.40004836e-03 -2.21611612e-02  6.61060415e-01
  9.89527992e-01  8.41409399e-01 -2.92530504e+00  5.85104557e-01
 -4.53017377e-01  1.44443833e+00 -8.77091243e-01  1.88415526e-04
 -1.01038736e-01  9.02398713e-01 -6.92309506e-01  1.59687462e-01
 -1.51337602e+00  1.59871509e-01  1.07650943e+00 -2.05998482e+00
 -5.86130350e-01  7.78596905e-01 -6.18711428e-02  1.77144672e+00
 -1.08973444e+00 -1.01779167e+00 -6.76990790e-02 -4.10628812e-02
  1.84588463e+00  1.19847285e+00  3.67754290e-01 -1.51437265e+00
  2.35413734e-01  2.85104081e-01 -1.05702583e-01 -2.59394958e+00
  6.38997630e-01  1.69249947e+00  5.03779495e-01 -5.62503738e-01
  7.34872689e-01 -1.90141047e+00  6.67132135e-01 -8.11477807e-01
 -1.55797647e-01  2.37878892e+00  7.62465237e-01  4.16564044e-02
  3.01654957e-01 -1.13868432e+00  7.32136905e-01  2.47691269e-01
  9.25313381e-01 -1.01247506e+00 -1.27854111e+00 -1.41109846e+00
 -2.39956476e-01 -5.85014892e-01  1.79855194e+00  4.31206749e-01
  3.40430228e+00 -1.86916899e-01  3.15871878e-01 -6.73969996e-01
 -1.55049369e+00 -1.65268008e-01  2.05200611e-01  1.11967007e+00
 -1.92656585e+00  1.47424485e-01 -1.35103736e-01  1.44444811e-01
 -1.19262852e+00  4.62621369e-01  1.23175217e+00 -6.06197483e-01
 -9.50270464e-01 -4.81863882e-01 -8.19699057e-01  9.73953223e-01
  6.01437562e-01  4.64366056e-01  1.13160229e+00 -1.42029502e-01
  4.23416290e-01 -9.91948705e-01 -7.85658541e-01  3.85188619e-01
 -1.15224833e+00 -5.86394264e-01  3.38807099e-01  1.05544079e+00
 -1.53599215e+00  4.59275486e-01  1.49380527e+00  6.97818325e-01
 -8.86603188e-01 -1.66045116e-01  6.31675581e-02 -8.78889956e-01
  1.23568599e+00 -1.25584144e+00  2.68358477e-01 -9.39104071e-01
  1.04934955e+00 -9.77693133e-01  6.18026393e-01 -2.06646769e-02
  1.34693572e+00 -8.44951891e-01  1.63616624e+00  7.54026441e-01
  4.15577865e-01 -1.76508821e+00 -1.98036897e+00 -8.50277385e-01
 -2.39606901e-01 -3.63179557e-01 -1.98925584e-01 -1.88296138e+00
 -6.24866191e-01 -1.19651492e-01 -6.87697274e-01  1.41252147e-01
  3.13267279e-01 -1.60624398e-01  1.04841912e+00  1.15092130e+00
  1.14413655e+00 -1.71460775e+00  5.28851253e-01  6.07887035e-01
  2.05936160e-01  1.63835497e+00 -8.13990789e-01  7.07037705e-01
  1.36548248e+00  8.10268239e-02  2.96018250e-02 -1.79645719e+00
 -6.37700170e-01  2.32060716e-01  2.84115720e-01 -1.07735568e+00
 -1.02635808e+00 -2.39505271e-01  6.09595387e-01  8.72879214e-01
 -3.94024906e-02  1.41392441e+00 -3.76232006e-01 -3.20886796e-01
  3.64315460e-01 -7.24617691e-01 -6.69503573e-02 -1.87217311e+00
  6.47930276e-02  1.03721763e+00 -7.89552769e-01  4.66142482e-01
  9.53295619e-01 -1.55018510e-01  5.02612888e-01 -1.41725329e+00
 -5.44914936e-01  1.71866403e+00 -8.70313388e-01 -4.23056568e-02
 -1.50730921e+00  7.55010216e-01 -1.16607610e-01  1.86601195e-01
  8.34657148e-01  1.01981667e+00 -2.67694191e-01 -3.46682400e-01
  5.89438533e-01 -6.27788008e-01  4.64550856e-01  2.97578929e+00
  5.53535808e-01  3.55705606e-01 -1.84352289e-01 -6.40884294e-01
  9.57029215e-01 -4.39835210e-01  1.87938132e-01  1.55481819e+00
 -4.05166930e-01  4.93114665e-02 -1.32167330e+00  8.53095620e-01
  9.47159536e-01 -1.10904663e-01 -2.60808663e-01 -1.99782080e-01
  1.53851122e+00  1.03599584e+00  1.84614371e-01  8.30979878e-01][-1.59182563  2.5859893   1.57427819  2.56110109  1.21940009  1.36316397
  0.03001063 -1.30223304 -0.13994251 -1.31161282 -0.41164464  0.47809521
  0.33997495 -1.45829788 -1.29917148 -0.99204088 -0.05740103  0.09612679
 -1.23439992 -0.3701434   0.90851022 -0.72696142  0.46962505 -0.95714073
  0.94782149 -0.94943992  0.16655235 -0.45487402  0.1634237  -0.46053673
  1.28571656 -0.81941114  1.42414612 -2.10890307 -0.60501094 -0.84452817
 -0.62327661 -0.01911695 -0.20338618  1.15610732 -0.38756439 -0.34254465
 -0.05119051 -1.07554855  0.03652281  1.04627182  0.03855625 -1.31141716
  0.54019675 -0.08137323  0.97415582 -1.86189433  0.27530202 -2.71051688
 -0.2506032   0.55531572 -0.93240956  0.95002056  0.87010654  0.70336285
 -0.95791071  0.16547973  0.19047094  0.55593612  0.58787142 -0.83299
  0.72719507 -0.79396899  2.29446114  0.51011407  0.73620039 -0.35710105
 -2.14753971  0.89259408 -1.30199967  0.23286203 -0.31254092  0.23899421
  0.94470841 -0.11611826  1.99835014  1.563916   -0.23695809  0.16649202
  1.26576763 -0.29554293  0.54454985  0.45605866  1.34420128 -0.24932748
 -0.25753313 -0.28924271 -0.47042448 -0.59270688 -0.4993548  -0.19866399
 -1.4915117  -0.77101655 -0.46306745 -0.86007883  2.07213548 -0.00898744
 -0.11784427 -1.86501591  0.34047267  0.14937733 -0.27694042 -0.87101392
  0.36602259  0.50091779 -1.23154576 -0.67945058 -0.01284396  0.35232798
 -0.59205278 -1.64158503  0.36587211 -0.46967144  0.61194413 -0.20218878
 -1.24674505  0.22154296  1.65377621 -1.29448276 -0.04579606  0.39160471
  0.21767344  0.40661005  0.23340601 -1.1618711   0.71006849  0.0477451
  0.3874181   1.89296837 -1.0040689  -1.43183446  0.02573118 -0.27820855
 -0.69700094 -2.28811534 -0.37415223  0.74951427 -0.33278623 -0.69610299
  0.5783687   0.38794684  1.67386989 -0.35283089 -0.54281386 -0.54014187
 -1.4348084  -1.26157517  0.46162552 -1.83610412 -1.02536528  0.6485876
 -0.56847973 -0.88125811 -0.08647902 -0.32327434  1.39631873 -0.91297241
 -1.28020898 -0.93958852 -2.08944147  1.1606205  -0.47155802  0.66044835
 -1.43459329 -0.0774276  -0.12718473 -0.90379424 -1.88437333 -0.05558715
  0.86194515 -0.47879061 -0.66333872  0.07077075 -1.88105251  0.09294204
  0.49878098 -0.9283033  -0.43307056 -1.26119464  0.82545583  0.60661044
 -0.9962398   0.2738505  -0.80781843 -0.03067981  1.13258167  0.43587297
  0.05524404  1.51630046 -1.52708319  0.75082062  0.16560671  0.6178185
 -0.57018124 -0.11807522 -0.13336382 -0.94004214 -0.66551631 -0.6813249
  0.44076159 -0.39938672  2.33581249 -1.83857925 -0.85417951  0.17017594
 -0.72328137 -0.43661357 -0.3936721  -0.39102329 -1.14373724 -0.45860273
  2.0405829  -1.53001282  0.30639677  1.1665262  -0.03569549  0.80872091
 -0.98748298  2.06401004  0.25171443  0.49349322  1.1053653   0.33090166
  0.16380471  0.85382333 -0.62348923 -1.09227134 -0.01756503  0.83433307
 -0.02969596  1.21672903  0.1104654  -0.56436767  1.46864774  1.29075727
 -0.31896788 -0.62480697  0.50303589 -0.12229598 -0.82260294  0.15301002
